{"learner":{"attributes":{"best_iteration":"99","best_ntree_limit":"100","scikit_learn":"{\"use_label_encoder\": true, \"n_estimators\": 100, \"objective\": \"multi:softprob\", \"max_depth\": null, \"learning_rate\": null, \"verbosity\": null, \"booster\": null, \"tree_method\": null, \"gamma\": null, \"min_child_weight\": null, \"max_delta_step\": null, \"subsample\": null, \"colsample_bytree\": null, \"colsample_bylevel\": null, \"colsample_bynode\": null, \"reg_alpha\": null, \"reg_lambda\": null, \"scale_pos_weight\": null, \"base_score\": null, \"missing\": NaN, \"num_parallel_tree\": null, \"random_state\": null, \"n_jobs\": null, \"monotone_constraints\": null, \"interaction_constraints\": null, \"importance_type\": null, \"gpu_id\": null, \"validate_parameters\": null, \"predictor\": null, \"enable_categorical\": false, \"classes_\": [\"C1\", \"C2\", \"C3\"], \"n_classes_\": 3, \"_le\": {\"classes_\": [\"C1\", \"C2\", \"C3\"]}, \"_estimator_type\": \"classifier\"}"},"feature_names":["101k14","106k13","10k91","110k13","115k13","11k88","125k12","126k12","12k86","136k10","13k73","13k83","149k10","157k9","159k9","16k57","16k61","19k56","1k101","208k7","20k54","22k45","239k6","24k43","26k43","277k5","2k101","30k37","31k36","327k5","33k34","34k34","35k34","37k33","39k33","3k101","45k27","47k27","49k26","4k101","54k24","5k101","63k19","67k19","6k101","7k101","80k17","85k17","86k16","8k101","90k15","96k14","97k14","9k96"],"feature_types":["float","float","float","float","float","float","float","float","float","float","float","float","float","float","float","float","float","float","float","float","float","float","float","float","float","float","float","float","float","float","float","float","float","float","float","float","float","float","float","float","float","float","float","float","float","float","float","float","float","float","float","float","float","float"],"gradient_booster":{"model":{"gbtree_model_param":{"num_trees":"300","size_leaf_vector":"0"},"tree_info":[0,1,2,0,1,2,0,1,2,0,1,2,0,1,2,0,1,2,0,1,2,0,1,2,0,1,2,0,1,2,0,1,2,0,1,2,0,1,2,0,1,2,0,1,2,0,1,2,0,1,2,0,1,2,0,1,2,0,1,2,0,1,2,0,1,2,0,1,2,0,1,2,0,1,2,0,1,2,0,1,2,0,1,2,0,1,2,0,1,2,0,1,2,0,1,2,0,1,2,0,1,2,0,1,2,0,1,2,0,1,2,0,1,2,0,1,2,0,1,2,0,1,2,0,1,2,0,1,2,0,1,2,0,1,2,0,1,2,0,1,2,0,1,2,0,1,2,0,1,2,0,1,2,0,1,2,0,1,2,0,1,2,0,1,2,0,1,2,0,1,2,0,1,2,0,1,2,0,1,2,0,1,2,0,1,2,0,1,2,0,1,2,0,1,2,0,1,2,0,1,2,0,1,2,0,1,2,0,1,2,0,1,2,0,1,2,0,1,2,0,1,2,0,1,2,0,1,2,0,1,2,0,1,2,0,1,2,0,1,2,0,1,2,0,1,2,0,1,2,0,1,2,0,1,2,0,1,2,0,1,2,0,1,2,0,1,2,0,1,2,0,1,2,0,1,2,0,1,2,0,1,2,0,1,2,0,1,2,0,1,2,0,1,2,0,1,2,0,1,2],"trees":[{"base_weights":[7.8947365E-1,1.2141176E0,-2.9479775E-1,1.3526448E0,-5.675676E-1,1.7647055E-1,-6.804124E-1,1.4164456E0,1.0344825E-1,7.35849E-1,-5.853659E-1,1.4383562E0,4.285714E-1,-4.2857146E-1,1.1707317E0,1.4617563E0,4.285714E-1],"categories":[],"categories_nodes":[],"categories_segments":[],"categories_sizes":[],"default_left":[true,true,true,true,false,true,false,true,false,true,false,true,false,false,false,false,false],"id":0,"left_children":[1,3,5,7,-1,9,-1,11,-1,13,-1,15,-1,-1,-1,-1,-1],"loss_changes":[3.0490452E1,1.2422722E1,3.613288E0,3.3691177E0,0E0,4.4555373E0,0E0,2.9024506E-1,0E0,3.483795E0,0E0,3.3182526E-1,0E0,0E0,0E0,0E0,0E0],"parents":[2147483647,0,0,1,1,2,2,3,3,5,5,7,7,9,9,11,11],"right_children":[2,4,6,8,-1,10,-1,12,-1,14,-1,16,-1,-1,-1,-1,-1],"split_conditions":[4.3305123E-1,1.8503772E0,6.3022363E-1,5.8931077E-1,-1.7027028E-1,9.579958E-1,-2.0412374E-1,9.5734733E-1,3.1034475E-2,-1.3556058E0,-1.7560977E-1,6.737437E-1,1.2857142E-1,-1.2857145E-1,3.512195E-1,4.3852693E-1,1.2857142E-1],"split_indices":[35,20,21,21,0,0,0,1,0,16,0,2,0,0,0,0,0],"split_type":[0,0,0,0,0,0,0,0,0,0,0,0,0,0,0,0,0],"sum_hessian":[6.444444E1,4.622222E1,1.8222221E1,4.3111107E1,3.111111E0,8.444444E0,9.777777E0,4.0888885E1,2.222222E0,4.8888884E0,3.5555553E0,3.9555553E1,1.3333333E0,1.3333333E0,3.5555553E0,3.822222E1,1.3333333E0],"tree_param":{"num_deleted":"0","num_feature":"54","num_nodes":"17","size_leaf_vector":"0"}},{"base_weights":[-3.718167E-1,-6.4752483E-1,1.1612903E0,-7.350994E-1,9.836062E-2,1.3333334E0,-2.5544848E-8,1.0344827E0,-5.853659E-1],"categories":[],"categories_nodes":[],"categories_segments":[],"categories_sizes":[],"default_left":[true,true,true,false,true,false,false,false,false],"id":1,"left_children":[1,3,5,-1,7,-1,-1,-1,-1],"loss_changes":[2.8414679E1,3.7375183E0,2.064516E0,0E0,4.943678E0,0E0,0E0,0E0,0E0],"parents":[2147483647,0,0,1,1,2,2,4,4],"right_children":[2,4,6,-1,8,-1,-1,-1,-1],"split_conditions":[1.101136E0,8.483139E-1,9.6843255E-1,-2.2052982E-1,-5.106843E-1,4.0000004E-1,-7.663455E-9,3.1034482E-1,-1.7560977E-1],"split_indices":[26,5,0,0,7,0,0,0,0],"split_type":[0,0,0,0,0,0,0,0,0],"sum_hessian":[6.444444E1,5.5111107E1,9.333333E0,4.9333332E1,5.7777777E0,7.9999995E0,1.3333333E0,2.222222E0,3.5555553E0],"tree_param":{"num_deleted":"0","num_feature":"54","num_nodes":"9","size_leaf_vector":"0"}},{"base_weights":[-4.176571E-1,-7.3584914E-1,8.677686E-1,-3.2432437E-1,1.2580645E0,-2.5544848E-8,-4.8000002E-1,1.3333334E0,4.285714E-1],"categories":[],"categories_nodes":[],"categories_segments":[],"categories_sizes":[],"default_left":[true,false,true,true,true,false,false,false,false],"id":2,"left_children":[1,-1,3,5,7,-1,-1,-1,-1],"loss_changes":[2.740612E1,0E0,6.6633034E0,2.0756754E-1,7.3732376E-2,0E0,0E0,0E0,0E0],"parents":[2147483647,0,0,2,2,3,3,4,4],"right_children":[2,-1,4,6,8,-1,-1,-1,-1],"split_conditions":[9.9593145E-1,-2.2075476E-1,1.0568335E0,7.6157E-1,2.0231817E0,-7.663455E-9,-1.4400001E-1,4.0000004E-1,1.2857142E-1],"split_indices":[20,0,0,0,0,0,0,0,0],"split_type":[0,0,0,0,0,0,0,0,0],"sum_hessian":[6.444444E1,5.1999996E1,1.2444444E1,3.111111E0,9.333333E0,1.3333333E0,1.7777777E0,7.9999995E0,1.3333333E0],"tree_param":{"num_deleted":"0","num_feature":"54","num_nodes":"9","size_leaf_vector":"0"}},{"base_weights":[5.714588E-1,7.701238E-1,-6.1805E-1,9.086739E-1,-2.7143896E-1,9.5922077E-1,-4.2807654E-1,6.306723E-1,-5.8851904E-1,9.8315936E-1,1.900053E-1,1.0144134E0,3.573701E-1,-6.6327244E-2,6.194346E-1],"categories":[],"categories_nodes":[],"categories_segments":[],"categories_sizes":[],"default_left":[true,true,false,true,true,true,false,false,false,true,false,false,true,false,false],"id":3,"left_children":[1,3,-1,5,7,9,-1,-1,-1,11,-1,-1,13,-1,-1],"loss_changes":[1.6727169E1,8.814686E0,0E0,3.9669113E0,2.5853019E0,7.5273514E-1,0E0,0E0,0E0,6.00605E-1,0E0,0E0,4.7260648E-1,0E0,0E0],"parents":[2147483647,0,0,1,1,3,3,4,4,5,5,9,9,12,12],"right_children":[2,4,-1,6,8,10,-1,-1,-1,12,-1,-1,14,-1,-1],"split_conditions":[7.354612E-1,1.3186313E0,-1.85415E-1,1.4821832E0,-8.0359817E-1,1.1598097E0,-1.2842296E-1,1.892017E-1,-1.7655572E-1,8.0456257E-1,5.7001594E-2,3.0432403E-1,2.5290564E-1,-1.9898174E-2,1.8583038E-1],"split_indices":[21,20,0,35,2,4,0,0,0,9,0,0,2,0,0],"split_type":[0,0,0,0,0,0,0,0,0,0,0,0,0,0,0],"sum_hessian":[6.7769554E1,5.8373E1,9.396557E0,5.1632378E1,6.7406225E0,5.002326E1,1.6091189E0,1.4958481E0,5.2447743E0,4.8243744E1,1.7795155E0,4.535743E1,2.8863156E0,1.3884385E0,1.4978771E0],"tree_param":{"num_deleted":"0","num_feature":"54","num_nodes":"15","size_leaf_vector":"0"}},{"base_weights":[-3.1125963E-1,-5.694529E-1,8.367758E-1,-6.5834457E-1,1.0361888E-1,9.582342E-1,-3.6095005E-2,8.114338E-1,-5.1574594E-1],"categories":[],"categories_nodes":[],"categories_segments":[],"categories_sizes":[],"default_left":[true,true,true,false,true,false,false,false,false],"id":4,"left_children":[1,3,5,-1,7,-1,-1,-1,-1],"loss_changes":[1.8051615E1,2.999958E0,1.2316751E0,0E0,3.3033612E0,0E0,0E0,0E0,0E0],"parents":[2147483647,0,0,1,1,2,2,4,4],"right_children":[2,4,6,-1,8,-1,-1,-1,-1],"split_conditions":[1.101136E0,8.483139E-1,2.2181982E-1,-1.9750337E-1,-5.106843E-1,2.8747028E-1,-1.0828502E-2,2.4343015E-1,-1.547238E-1],"split_indices":[26,5,3,0,7,0,0,0,0],"split_type":[0,0,0,0,0,0,0,0,0],"sum_hessian":[5.8292233E1,4.800082E1,1.0291414E1,4.2420307E1,5.580511E0,8.948456E0,1.3429585E0,2.459579E0,3.120932E0],"tree_param":{"num_deleted":"0","num_feature":"54","num_nodes":"9","size_leaf_vector":"0"}},{"base_weights":[-3.5341302E-1,-6.5919846E-1,6.524421E-1,-2.657686E-1,9.076655E-1,-4.3639126E-1,5.443666E-2,2.9463446E-1,9.6666485E-1],"categories":[],"categories_nodes":[],"categories_segments":[],"categories_sizes":[],"default_left":[true,false,true,true,true,false,false,false,false],"id":5,"left_children":[1,-1,3,5,7,-1,-1,-1,-1],"loss_changes":[1.8570385E1,0E0,3.5812387E0,2.3537642E-1,1.2674427E-1,0E0,0E0,0E0,0E0],"parents":[2147483647,0,0,2,2,3,3,4,4],"right_children":[2,-1,4,6,8,-1,-1,-1,-1],"split_conditions":[9.9593145E-1,-1.9775955E-1,1.0568335E0,6.559636E-1,-6.874697E-1,-1.3091739E-1,1.6330998E-2,8.839034E-2,2.8999946E-1],"split_indices":[20,0,0,10,42,0,0,0,0],"split_type":[0,0,0,0,0,0,0,0,0],"sum_hessian":[5.797828E1,4.4725975E1,1.3252302E1,2.8734057E0,1.0378897E1,1.6378317E0,1.235574E0,1.4374087E0,8.941487E0],"tree_param":{"num_deleted":"0","num_feature":"54","num_nodes":"9","size_leaf_vector":"0"}},{"base_weights":[4.63375E-1,6.1812174E-1,-5.633316E-1,6.9625455E-1,-5.082415E-1,7.4475527E-1,-2.5613979E-1,7.826454E-1,-3.6745146E-1,-3.6937544E-1,-2.348407E-2,2.3137482E-1,8.041218E-1,2.2725385E-1,8.1570643E-1],"categories":[],"categories_nodes":[],"categories_segments":[],"categories_sizes":[],"default_left":[true,true,false,true,false,true,true,true,false,false,false,false,true,false,false],"id":6,"left_children":[1,3,-1,5,-1,7,9,11,-1,-1,-1,-1,13,-1,-1],"loss_changes":[1.0572799E1,5.3175755E0,0E0,2.6465645E0,0E0,2.4302769E0,7.8799695E-2,3.998661E-1,0E0,0E0,0E0,0E0,1.3025665E-1,0E0,0E0],"parents":[2147483647,0,0,1,1,3,3,5,5,6,6,7,7,12,12],"right_children":[2,4,-1,6,-1,8,10,12,-1,-1,-1,-1,14,-1,-1],"split_conditions":[7.354612E-1,1.5380446E0,-1.689995E-1,8.381295E-1,-1.5247245E-1,1.8503772E0,4.1448992E-1,-1.1058426E0,-1.10235445E-1,-1.10812634E-1,-7.045221E-3,6.941245E-2,-2.0367725E0,6.817616E-2,2.4471194E-1],"split_indices":[21,4,0,45,0,20,7,27,0,0,0,0,12,0,0],"split_type":[0,0,0,0,0,0,0,0,0,0,0,0,0,0,0],"sum_hessian":[6.3354366E1,5.5402042E1,7.952323E0,5.2165333E1,3.2367113E0,4.984499E1,2.3203406E0,4.848939E1,1.3556011E0,1.1654549E0,1.1548858E0,2.2596838E0,4.6229706E1,1.3159858E0,4.491372E1],"tree_param":{"num_deleted":"0","num_feature":"54","num_nodes":"15","size_leaf_vector":"0"}},{"base_weights":[-2.7259123E-1,-5.0393957E-1,7.1972543E-1,-5.876684E-1,5.098564E-2,7.702286E-1,2.2633806E-1,2.2344122E-2,-6.073328E-1,5.3951216E-1,-4.6337932E-1],"categories":[],"categories_nodes":[],"categories_segments":[],"categories_sizes":[],"default_left":[true,true,true,true,true,false,false,false,false,false,false],"id":7,"left_children":[1,3,5,7,9,-1,-1,-1,-1,-1,-1],"loss_changes":[1.2150574E1,1.9920025E0,7.78265E-2,4.5466423E-1,1.8723475E0,0E0,0E0,0E0,0E0,0E0,0E0],"parents":[2147483647,0,0,1,1,2,2,3,3,4,4],"right_children":[2,4,6,8,10,-1,-1,-1,-1,-1,-1],"split_conditions":[1.0684481E0,7.9388547E-1,1.6736428E0,-1.1948547E0,-5.106843E-1,2.310686E-1,6.790142E-2,6.7032366E-3,-1.8219985E-1,1.6185366E-1,-1.390138E-1],"split_indices":[45,5,4,10,7,0,0,0,0,0,0],"split_type":[0,0,0,0,0,0,0,0,0,0,0],"sum_hessian":[5.034745E1,4.122778E1,9.11967E0,3.5771465E1,5.4563146E0,7.7638574E0,1.3558128E0,1.1128657E0,3.46586E1,2.7733707E0,2.6829438E0],"tree_param":{"num_deleted":"0","num_feature":"54","num_nodes":"11","size_leaf_vector":"0"}},{"base_weights":[-3.1038117E-1,-6.0722756E-1,5.229716E-1,-2.4328464E-1,7.3320407E-1,5.213634E-2,-4.067071E-1,7.866568E-1,2.0771034E-1],"categories":[],"categories_nodes":[],"categories_segments":[],"categories_sizes":[],"default_left":[true,false,true,true,true,false,false,false,false],"id":8,"left_children":[1,-1,3,5,7,-1,-1,-1,-1],"loss_changes":[1.2928965E1,0E0,2.4219444E0,2.0221521E-1,1.5058088E-1,0E0,0E0,0E0,0E0],"parents":[2147483647,0,0,2,2,3,3,4,4],"right_children":[2,-1,4,6,8,-1,-1,-1,-1],"split_conditions":[9.9593145E-1,-1.8216828E-1,1.0568335E0,-1.6631615E-1,8.0317694E-1,1.5640903E-2,-1.2201214E-1,2.3599705E-1,6.2313106E-2],"split_indices":[20,0,0,3,50,0,0,0,0],"split_type":[0,0,0,0,0,0,0,0,0],"sum_hessian":[4.998034E1,3.7053097E1,1.2927242E1,2.7493143E0,1.0177928E1,1.2217366E0,1.5275776E0,8.787124E0,1.3908037E0],"tree_param":{"num_deleted":"0","num_feature":"54","num_nodes":"9","size_leaf_vector":"0"}},{"base_weights":[3.94471E-1,5.271485E-1,-5.2370167E-1,5.9509283E-1,-4.6524766E-1,6.3085127E-1,-3.640249E-1,6.637658E-1,-3.3208036E-1,6.83608E-1,-5.013422E-2,7.046056E-1,1.9773984E-1],"categories":[],"categories_nodes":[],"categories_segments":[],"categories_sizes":[],"default_left":[true,true,false,true,false,true,false,true,false,true,false,false,false],"id":9,"left_children":[1,3,-1,5,-1,7,-1,9,-1,11,-1,-1,-1],"loss_changes":[7.199957E0,3.6589699E0,0E0,1.8547401E0,0E0,1.6798401E0,0E0,6.6970253E-1,0E0,3.066368E-1,0E0,0E0,0E0],"parents":[2147483647,0,0,1,1,3,3,5,5,7,7,9,9],"right_children":[2,4,-1,6,-1,8,-1,10,-1,12,-1,-1,-1],"split_conditions":[7.354612E-1,1.5380446E0,-1.5711051E-1,1.4821832E0,-1.395743E-1,1.8503772E0,-1.0920747E-1,8.6449933E-1,-9.962411E-2,5.8931077E-1,-1.5040266E-2,2.1138169E-1,5.9321955E-2],"split_indices":[21,4,0,35,0,20,0,45,0,21,0,0,0],"split_type":[0,0,0,0,0,0,0,0,0,0,0,0,0],"sum_hessian":[5.5836643E1,4.9158962E1,6.6776805E0,4.6383656E1,2.7753074E0,4.5046463E1,1.3371899E0,4.385801E1,1.1884536E0,4.2713264E1,1.1447476E0,4.051226E1,2.2010028E0],"tree_param":{"num_deleted":"0","num_feature":"54","num_nodes":"13","size_leaf_vector":"0"}},{"base_weights":[-2.419174E-1,-4.7509652E-1,5.751111E-1,-5.7087195E-1,1.1155426E-1,6.6588604E-1,-7.296661E-2,5.878854E-1,-4.1790968E-1],"categories":[],"categories_nodes":[],"categories_segments":[],"categories_sizes":[],"default_left":[true,true,true,false,true,false,false,false,false],"id":10,"left_children":[1,3,5,-1,7,-1,-1,-1,-1],"loss_changes":[8.52894E0,1.9886413E0,6.412251E-1,0E0,1.669295E0,0E0,0E0,0E0,0E0],"parents":[2147483647,0,0,1,1,2,2,4,4],"right_children":[2,4,6,-1,8,-1,-1,-1,-1],"split_conditions":[1.101136E0,8.483139E-1,7.091309E-1,-1.712616E-1,-5.106843E-1,1.9976582E-1,-2.1889985E-2,1.7636561E-1,-1.2537292E-1],"split_indices":[26,5,16,0,7,0,0,0,0],"split_type":[0,0,0,0,0,0,0,0,0],"sum_hessian":[4.2333866E1,3.3260002E1,9.073865E0,2.8615232E1,4.6447697E0,7.9349527E0,1.1389117E0,2.3869839E0,2.2577858E0],"tree_param":{"num_deleted":"0","num_feature":"54","num_nodes":"9","size_leaf_vector":"0"}},{"base_weights":[-2.7819702E-1,-5.7063526E-1,4.4454902E-1,-2.7493724E-1,6.222733E-1,-3.5408515E-1,-6.759159E-2,-5.1223096E-2,7.042765E-1],"categories":[],"categories_nodes":[],"categories_segments":[],"categories_sizes":[],"default_left":[true,false,true,true,true,false,false,false,false],"id":11,"left_children":[1,-1,3,5,7,-1,-1,-1,-1],"loss_changes":[9.322887E0,0E0,1.8235123E0,2.9457599E-2,6.2533E-1,0E0,0E0,0E0,0E0],"parents":[2147483647,0,0,2,2,3,3,4,4],"right_children":[2,-1,4,6,8,-1,-1,-1,-1],"split_conditions":[9.9593145E-1,-1.7119059E-1,-2.4646673E-1,9.3739545E-1,-8.6899716E-1,-1.0622555E-1,-2.0277478E-2,-1.536693E-2,2.1128295E-1],"split_indices":[20,0,29,2,46,0,0,0,0],"split_type":[0,0,0,0,0,0,0,0,0],"sum_hessian":[4.190913E1,2.9986446E1,1.1922684E1,2.2533588E0,9.669325E0,1.1186452E0,1.1347138E0,1.090266E0,8.579059E0],"tree_param":{"num_deleted":"0","num_feature":"54","num_nodes":"9","size_leaf_vector":"0"}},{"base_weights":[3.480694E-1,4.6703693E-1,-4.8844656E-1,5.296292E-1,-4.2454433E-1,5.641588E-1,-3.335407E-1,5.9453636E-1,-2.9457626E-1,-1.1876939E-1,6.176773E-1,6.386078E-1,1.4257714E-1],"categories":[],"categories_nodes":[],"categories_segments":[],"categories_sizes":[],"default_left":[true,true,false,true,false,true,false,true,false,false,true,false,false],"id":12,"left_children":[1,3,-1,5,-1,7,-1,9,-1,-1,11,-1,-1],"loss_changes":[5.023941E0,2.6078434E0,0E0,1.3906555E0,0E0,1.1968012E0,0E0,7.032175E-1,0E0,0E0,2.7807713E-1,0E0,0E0],"parents":[2147483647,0,0,1,1,3,3,5,5,7,7,10,10],"right_children":[2,4,-1,6,-1,8,-1,10,-1,-1,12,-1,-1],"split_conditions":[7.354612E-1,1.5380446E0,-1.4653398E-1,9.47209E-1,-1.2736331E-1,1.8503772E0,-1.00062214E-1,-2.2517583E0,-8.837288E-2,-3.563082E-2,1.3523135E0,1.9158235E-1,4.2773142E-2],"split_indices":[21,4,0,45,0,20,0,6,0,0,8,0,0],"split_type":[0,0,0,0,0,0,0,0,0,0,0,0,0],"sum_hessian":[4.7190342E1,4.170135E1,5.4889913E0,3.9345146E1,2.356204E0,3.816484E1,1.1803092E0,3.7158043E1,1.0067972E0,1.0377418E0,3.61203E1,3.4266533E1,1.8537664E0],"tree_param":{"num_deleted":"0","num_feature":"54","num_nodes":"13","size_leaf_vector":"0"}},{"base_weights":[-2.1903335E-1,-4.999943E-1,3.6206135E-1,2.4324952E-1,-5.431279E-1,-2.507478E-1,5.414392E-1,-1.0210721E-2,-3.4583846E-1,6.079777E-1,8.122669E-2],"categories":[],"categories_nodes":[],"categories_segments":[],"categories_sizes":[],"default_left":[true,true,true,false,false,true,true,false,false,false,false],"id":13,"left_children":[1,3,5,-1,-1,7,9,-1,-1,-1,-1],"loss_changes":[6.0109615E0,9.1724586E-1,1.4788296E0,0E0,0E0,7.538135E-2,2.4973106E-1,0E0,0E0,0E0,0E0],"parents":[2147483647,0,0,1,1,2,2,5,5,6,6],"right_children":[2,4,6,-1,-1,8,10,-1,-1,-1,-1],"split_conditions":[6.771839E-1,-1.9740851E0,3.39822E-1,7.297486E-2,-1.6293837E-1,1.8692622E-1,1.894152E-1,-3.0632163E-3,-1.0375154E-1,1.8239331E-1,2.4368009E-2],"split_indices":[44,34,5,0,0,6,47,0,0,0,0],"split_type":[0,0,0,0,0,0,0,0,0,0,0],"sum_hessian":[3.470842E1,2.3490337E1,1.1218081E1,1.0339906E0,2.2456348E1,2.4500594E0,8.768023E0,1.0078999E0,1.4421597E0,7.3799353E0,1.3880872E0],"tree_param":{"num_deleted":"0","num_feature":"54","num_nodes":"11","size_leaf_vector":"0"}},{"base_weights":[-2.5245836E-1,-5.4309607E-1,3.8870314E-1,-2.4750131E-1,5.50475E-1,-4.613032E-2,-3.259521E-1,-4.2881884E-2,6.246415E-1],"categories":[],"categories_nodes":[],"categories_segments":[],"categories_sizes":[],"default_left":[true,false,true,true,true,false,false,false,false],"id":14,"left_children":[1,-1,3,5,7,-1,-1,-1,-1],"loss_changes":[6.818978E0,0E0,1.3345692E0,3.3150762E-2,4.4894814E-1,0E0,0E0,0E0,0E0],"parents":[2147483647,0,0,2,2,3,3,4,4],"right_children":[2,-1,4,6,8,-1,-1,-1,-1],"split_conditions":[9.9593145E-1,-1.6292882E-1,-2.4646673E-1,-5.1303677E-2,-8.6899716E-1,-1.3839096E-2,-9.778564E-2,-1.28645655E-2,1.8739244E-1],"split_indices":[20,0,29,1,46,0,0,0,0],"split_type":[0,0,0,0,0,0,0,0,0],"sum_hessian":[3.4460304E1,2.3817024E1,1.0643278E1,2.0502532E0,8.593025E0,1.0200248E0,1.0302284E0,1.001612E0,7.5914135E0],"tree_param":{"num_deleted":"0","num_feature":"54","num_nodes":"9","size_leaf_vector":"0"}},{"base_weights":[3.1225994E-1,4.2299902E-1,-4.5924288E-1,4.8249906E-1,-3.8822138E-1,5.1762486E-1,-3.071654E-1,5.5106086E-1,-9.8515145E-2,1.483393E-1,5.767152E-1,3.3492324E-1,-1.3011432E-1,5.921224E-1,1.0960597E-1],"categories":[],"categories_nodes":[],"categories_segments":[],"categories_sizes":[],"default_left":[true,true,false,true,false,true,false,true,false,true,true,false,false,false,false],"id":15,"left_children":[1,3,-1,5,-1,7,-1,9,-1,11,13,-1,-1,-1,-1],"loss_changes":[3.62001E0,1.9049201E0,0E0,1.0909572E0,0E0,7.246666E-1,0E0,2.3490715E-1,0E0,2.1003321E-1,1.4246655E-1,0E0,0E0,0E0,0E0],"parents":[2147483647,0,0,1,1,3,3,5,5,7,7,9,9,10,10],"right_children":[2,4,-1,6,-1,8,-1,10,-1,12,14,-1,-1,-1,-1],"split_conditions":[7.354612E-1,1.5380446E0,-1.3777287E-1,1.4821832E0,-1.1646642E-1,1.4213524E0,-9.214963E-2,-1.0817947E0,-2.9554544E-2,7.7394474E-1,1.5857089E0,1.0047697E-1,-3.9034296E-2,1.7763671E-1,3.2881793E-2],"split_indices":[21,4,0,35,0,24,0,10,0,5,20,0,0,0,0],"split_type":[0,0,0,0,0,0,0,0,0,0,0,0,0,0,0],"sum_hessian":[3.90975E1,3.4585E1,4.512501E0,3.2599186E1,1.9858122E0,3.1540695E1,1.0584911E0,3.001737E1,1.5233251E0,2.2038298E0,2.781354E1,1.1981716E0,1.0056583E0,2.666634E1,1.1471999E0],"tree_param":{"num_deleted":"0","num_feature":"54","num_nodes":"15","size_leaf_vector":"0"}},{"base_weights":[-1.9886036E-1,-4.7246316E-1,3.2537237E-1,2.1102168E-1,-5.2047354E-1,-2.5571832E-1,4.8250702E-1,1.03353426E-1,5.554538E-1],"categories":[],"categories_nodes":[],"categories_segments":[],"categories_sizes":[],"default_left":[true,true,true,false,false,false,true,false,false],"id":16,"left_children":[1,3,5,-1,-1,-1,7,-1,-1],"loss_changes":[4.3505883E0,7.5410557E-1,1.0936848E0,0E0,0E0,0E0,1.8352056E-1,0E0,0E0],"parents":[2147483647,0,0,1,1,2,2,6,6],"right_children":[2,4,6,-1,-1,-1,8,-1,-1],"split_conditions":[6.771839E-1,-1.9740851E0,4.497422E-1,6.33065E-2,-1.5614207E-1,-7.67155E-2,5.7361364E-1,3.1006029E-2,1.6663614E-1],"split_indices":[44,34,9,0,0,0,5,0,0],"split_type":[0,0,0,0,0,0,0,0,0],"sum_hessian":[2.8260384E1,1.86339E1,9.626484E0,1.0001557E0,1.7633745E1,1.9155E0,7.7109838E0,1.6341311E0,6.076853E0],"tree_param":{"num_deleted":"0","num_feature":"54","num_nodes":"9","size_leaf_vector":"0"}},{"base_weights":[-2.3087257E-1,-5.2109265E-1,3.4654734E-1,-1.9694215E-1,5.158948E-1,4.537886E-2,-3.2935506E-1,5.540983E-1,1.2245064E-1],"categories":[],"categories_nodes":[],"categories_segments":[],"categories_sizes":[],"default_left":[true,false,true,true,true,false,false,false,false],"id":17,"left_children":[1,-1,3,5,7,-1,-1,-1,-1],"loss_changes":[5.045313E0,0E0,1.0505896E0,1.1676345E-1,5.4465532E-2,0E0,0E0,0E0,0E0],"parents":[2147483647,0,0,2,2,3,3,4,4],"right_children":[2,-1,4,6,8,-1,-1,-1,-1],"split_conditions":[9.9593145E-1,-1.563278E-1,1.0568335E0,-8.235369E-2,1.702232E0,1.3613659E-2,-9.880652E-2,1.662295E-1,3.6735196E-2],"split_indices":[20,0,0,25,22,0,0,0,0],"split_type":[0,0,0,0,0,0,0,0,0],"sum_hessian":[2.8029501E1,1.871873E1,9.31077E0,2.1732323E0,7.137538E0,1.0001712E0,1.1730611E0,6.1336317E0,1.0039061E0],"tree_param":{"num_deleted":"0","num_feature":"54","num_nodes":"9","size_leaf_vector":"0"}},{"base_weights":[2.8231478E-1,3.8656732E-1,-4.3142337E-1,4.9358666E-1,-7.090481E-2,5.241412E-1,-8.706232E-2,2.3641041E-1,-4.0887284E-1,5.5543846E-1,1.0068406E-1,4.1038522E-1,-1.4398642E-1],"categories":[],"categories_nodes":[],"categories_segments":[],"categories_sizes":[],"default_left":[true,true,false,true,true,true,false,true,false,false,false,false,false],"id":18,"left_children":[1,3,-1,5,7,9,-1,11,-1,-1,-1,-1,-1],"loss_changes":[2.633487E0,1.4769726E0,0E0,4.713354E-1,7.6743495E-1,2.4807167E-1,0E0,3.248772E-1,0E0,0E0,0E0,0E0,0E0],"parents":[2147483647,0,0,1,1,3,3,4,4,5,5,7,7],"right_children":[2,4,-1,6,8,10,-1,12,-1,-1,-1,-1,-1],"split_conditions":[7.354612E-1,6.295918E-1,-1.2942702E-1,1.7610403E0,6.559636E-1,8.483139E-1,-2.6118698E-2,1.9303616E0,-1.2266186E-1,1.6663155E-1,3.020522E-2,1.2311557E-1,-4.3195926E-2],"split_indices":[21,2,0,20,10,5,0,2,0,0,0,0,0],"split_type":[0,0,0,0,0,0,0,0,0,0,0,0,0],"sum_hessian":[3.215072E1,2.845309E1,3.697626E0,2.2994823E1,5.4582667E0,2.193775E1,1.0570751E0,3.0161595E0,2.4421072E0,2.0137716E1,1.8000331E0,2.0155237E0,1.0006359E0],"tree_param":{"num_deleted":"0","num_feature":"54","num_nodes":"13","size_leaf_vector":"0"}},{"base_weights":[-1.8182398E-1,-3.9291367E-1,4.2033628E-1,-5.037216E-1,1.3448758E-1,-4.134914E-3,4.9721664E-1,4.2300093E-1,-2.9482105E-1],"categories":[],"categories_nodes":[],"categories_segments":[],"categories_sizes":[],"default_left":[true,true,true,false,true,false,false,false,false],"id":19,"left_children":[1,3,5,-1,7,-1,-1,-1,-1],"loss_changes":[3.2114148E0,1.1349709E0,2.2082174E-1,0E0,6.1519456E-1,0E0,0E0,0E0,0E0],"parents":[2147483647,0,0,1,1,2,2,4,4],"right_children":[2,4,6,-1,8,-1,-1,-1,-1],"split_conditions":[1.101136E0,8.483139E-1,-1.2514522E0,-1.5111649E-1,-5.106843E-1,-1.2404742E-3,1.49165E-1,1.2690029E-1,-8.844632E-2],"split_indices":[26,5,27,0,7,0,0,0,0],"split_type":[0,0,0,0,0,0,0,0,0],"sum_hessian":[2.2965569E1,1.726185E1,5.7037177E0,1.4301897E1,2.9599543E0,1.0197423E0,4.683975E0,1.7790506E0,1.1809036E0],"tree_param":{"num_deleted":"0","num_feature":"54","num_nodes":"9","size_leaf_vector":"0"}},{"base_weights":[-2.1004634E-1,-4.730116E-1,3.7338197E-1,-5.075303E-1,3.479518E-2,-1.4863421E-1,4.9187815E-1],"categories":[],"categories_nodes":[],"categories_segments":[],"categories_sizes":[],"default_left":[true,true,true,false,false,false,false],"id":20,"left_children":[1,3,5,-1,-1,-1,-1],"loss_changes":[3.8297362E0,3.1309628E-1,5.6528604E-1,0E0,0E0,0E0,0E0],"parents":[2147483647,0,0,1,1,2,2],"right_children":[2,4,6,-1,-1,-1,-1],"split_conditions":[1.1209567E0,1.5329533E0,6.6013134E-1,-1.5225908E-1,1.0438554E-2,-4.4590265E-2,1.4756346E-1],"split_indices":[0,4,4,0,0,0,0],"split_type":[0,0,0,0,0,0,0],"sum_hessian":[2.2811039E1,1.5854353E1,6.9566855E0,1.4845744E1,1.0086088E0,1.239949E0,5.7167363E0],"tree_param":{"num_deleted":"0","num_feature":"54","num_nodes":"7","size_leaf_vector":"0"}},{"base_weights":[2.562106E-1,4.4045767E-1,-1.3890648E-1,5.200308E-1,-2.1728443E-1,4.831545E-2,-4.03385E-1,-2.3185557E-1,2.5260204E-1,-3.1724364E-1,-2.2398427E-2,-9.023508E-2,3.9355135E-1],"categories":[],"categories_nodes":[],"categories_segments":[],"categories_sizes":[],"default_left":[true,true,true,false,false,true,false,true,true,false,false,false,false],"id":21,"left_children":[1,3,5,-1,-1,7,-1,9,11,-1,-1,-1,-1],"loss_changes":[2.0394979E0,1.0955286E0,4.850567E-1,0E0,0E0,4.247727E-1,0E0,5.0474316E-2,2.3744392E-1,0E0,0E0,0E0,0E0],"parents":[2147483647,0,0,1,1,2,2,5,5,7,7,8,8],"right_children":[2,4,6,-1,-1,8,-1,10,12,-1,-1,-1,-1],"split_conditions":[2.2946085E-1,8.4563625E-1,7.293956E-1,1.5600924E-1,-6.518533E-2,-5.2324045E-1,-1.2101551E-1,4.1528973E-1,-8.3907497E-1,-9.51731E-2,-6.719528E-3,-2.7070524E-2,1.1806541E-1],"split_indices":[11,4,21,0,0,23,0,36,16,0,0,0,0],"split_type":[0,0,0,0,0,0,0,0,0,0,0,0,0],"sum_hessian":[2.6174973E1,1.7772652E1,8.40232E0,1.6041351E1,1.7312998E0,5.3982596E0,3.0040603E0,2.2194366E0,3.1788228E0,1.2111113E0,1.0083253E0,1.0309656E0,2.1478572E0],"tree_param":{"num_deleted":"0","num_feature":"54","num_nodes":"13","size_leaf_vector":"0"}},{"base_weights":[-1.6252692E-1,-4.2988124E-1,2.8703764E-1,-4.8434272E-1,1.00928396E-1,-2.0192657E-1,4.1680804E-1,8.507028E-2,4.798794E-1],"categories":[],"categories_nodes":[],"categories_segments":[],"categories_sizes":[],"default_left":[true,true,true,false,false,false,true,false,false],"id":22,"left_children":[1,3,5,-1,-1,-1,7,-1,-1],"loss_changes":[2.487011E0,4.1694927E-1,5.875502E-1,0E0,0E0,0E0,9.717882E-2,0E0,0E0],"parents":[2147483647,0,0,1,1,2,2,6,6],"right_children":[2,4,6,-1,-1,-1,8,-1,-1],"split_conditions":[6.771839E-1,1.4471014E0,4.497422E-1,-1.4530282E-1,3.027852E-2,-6.0577974E-2,5.7361364E-1,2.5521087E-2,1.4396383E-1],"split_indices":[44,35,9,0,0,0,5,0,0],"split_type":[0,0,0,0,0,0,0,0,0],"sum_hessian":[1.8665194E1,1.1732E1,6.9331927E0,1.0719691E1,1.0123087E0,1.3375155E0,5.5956774E0,1.2691414E0,4.3265357E0],"tree_param":{"num_deleted":"0","num_feature":"54","num_nodes":"9","size_leaf_vector":"0"}},{"base_weights":[-1.9277363E-1,-4.8673323E-1,3.0006012E-1,-2.0230308E-1,4.391753E-1,4.9616733E-1,6.891826E-2],"categories":[],"categories_nodes":[],"categories_segments":[],"categories_sizes":[],"default_left":[true,false,true,false,true,false,false],"id":23,"left_children":[1,-1,3,-1,5,-1,-1],"loss_changes":[2.9765701E0,0E0,6.4222986E-1,0E0,1.0331392E-1,0E0,0E0],"parents":[2147483647,0,0,2,2,4,4],"right_children":[2,-1,4,-1,6,-1,-1],"split_conditions":[9.9593145E-1,-1.4601998E-1,-2.4646673E-1,-6.069093E-2,1.444295E-1,1.488502E-1,2.0675479E-2],"split_indices":[20,0,29,0,52,0,0],"split_type":[0,0,0,0,0,0,0],"sum_hessian":[1.8537916E1,1.1619584E1,6.918332E0,1.401851E0,5.5164814E0,4.4859214E0,1.0305597E0],"tree_param":{"num_deleted":"0","num_feature":"54","num_nodes":"7","size_leaf_vector":"0"}},{"base_weights":[2.317792E-1,4.146229E-1,-1.3653061E-1,4.9604365E-1,-1.8847427E-1,1.7656831E-1,-2.684306E-1,2.7875835E-1,-1.2235715E-2,-3.568675E-1,7.8593055E-3,-4.014924E-1,-9.729468E-2],"categories":[],"categories_nodes":[],"categories_segments":[],"categories_sizes":[],"default_left":[true,true,true,false,false,true,true,false,false,true,false,false,false],"id":24,"left_children":[1,3,5,-1,-1,7,9,-1,-1,11,-1,-1,-1],"loss_changes":[1.5695388E0,8.428614E-1,3.8625732E-1,0E0,0E0,6.1973825E-2,1.5356389E-1,0E0,0E0,1.5326619E-2,0E0,0E0,0E0],"parents":[2147483647,0,0,1,1,2,2,5,5,6,6,9,9],"right_children":[2,4,6,-1,-1,8,10,-1,-1,12,-1,-1,-1],"split_conditions":[2.2946085E-1,8.4563625E-1,5.3955592E-2,1.488131E-1,-5.654228E-2,5.962534E-1,4.602629E-1,8.362751E-2,-3.6707146E-3,7.553358E-2,2.3577916E-3,-1.2044772E-1,-2.9188406E-2],"split_indices":[11,4,14,0,0,2,33,0,0,39,0,0,0],"split_type":[0,0,0,0,0,0,0,0,0,0,0,0,0],"sum_hessian":[2.1465992E1,1.4260676E1,7.2053146E0,1.2720817E1,1.5398599E0,2.035314E0,5.1700006E0,1.0114336E0,1.0238806E0,3.695482E0,1.4745185E0,2.6868286E0,1.0086534E0],"tree_param":{"num_deleted":"0","num_feature":"54","num_nodes":"13","size_leaf_vector":"0"}},{"base_weights":[-1.4808802E-1,-3.4211883E-1,3.9380813E-1,1.4017908E-1,-4.3216687E-1,-4.7071734E-1,-4.1369718E-2],"categories":[],"categories_nodes":[],"categories_segments":[],"categories_sizes":[],"default_left":[true,true,false,false,true,false,false],"id":25,"left_children":[1,3,-1,-1,5,-1,-1],"loss_changes":[1.8451345E0,6.0403657E-1,0E0,0E0,1.4307547E-1,0E0,0E0],"parents":[2147483647,0,0,1,1,4,4],"right_children":[2,4,-1,-1,6,-1,-1],"split_conditions":[1.0684481E0,-1.1497526E0,1.1814244E-1,4.2053726E-2,1.2011867E0,-1.412152E-1,-1.2410915E-2],"split_indices":[45,19,0,0,5,0,0],"split_type":[0,0,0,0,0,0,0],"sum_hessian":[1.526718E1,1.1513376E1,3.753805E0,1.7238275E0,9.789548E0,8.724417E0,1.065132E0],"tree_param":{"num_deleted":"0","num_feature":"54","num_nodes":"7","size_leaf_vector":"0"}},{"base_weights":[-1.7281508E-1,-4.7059926E-1,2.7869323E-1,4.368074E-1,-1.2403661E-1],"categories":[],"categories_nodes":[],"categories_segments":[],"categories_sizes":[],"default_left":[true,false,true,false,false],"id":26,"left_children":[1,-1,3,-1,-1],"loss_changes":[2.3081622E0,0E0,5.0393146E-1,0E0,0E0],"parents":[2147483647,0,0,2,2],"right_children":[2,-1,4,-1,-1],"split_conditions":[9.9593145E-1,-1.4117979E-1,-4.2093977E-2,1.3104223E-1,-3.7210986E-2],"split_indices":[20,0,52,0,0],"split_type":[0,0,0,0,0],"sum_hessian":[1.5191718E1,9.12874E0,6.0629787E0,4.2929316E0,1.7700472E0],"tree_param":{"num_deleted":"0","num_feature":"54","num_nodes":"5","size_leaf_vector":"0"}},{"base_weights":[2.087852E-1,3.9117253E-1,-1.3148867E-1,4.8784292E-1,-1.0647802E-1,-3.4006238E-1,6.338786E-2,2.433314E-1,-2.7629313E-1,3.3033866E-1,2.5979113E-2],"categories":[],"categories_nodes":[],"categories_segments":[],"categories_sizes":[],"default_left":[true,true,true,false,false,false,true,true,false,false,false],"id":27,"left_children":[1,3,5,-1,-1,-1,7,9,-1,-1,-1],"loss_changes":[1.2245642E0,6.5608466E-1,3.2008836E-1,0E0,0E0,0E0,3.5083723E-1,5.88336E-2,0E0,0E0,0E0],"parents":[2147483647,0,0,1,1,2,2,6,6,7,7],"right_children":[2,4,6,-1,-1,-1,8,10,-1,-1,-1],"split_conditions":[2.2946085E-1,1.3186313E0,-2.609639E-1,1.4635289E-1,-3.1943407E-2,-1.0201872E-1,1.0094988E0,5.7343566E-1,-8.288794E-2,9.91016E-2,7.7937343E-3],"split_indices":[11,20,19,0,0,0,0,48,0,0,0],"split_type":[0,0,0,0,0,0,0,0,0,0,0],"sum_hessian":[1.790265E1,1.1557976E1,6.3446746E0,9.694494E0,1.8634821E0,2.7047753E0,3.639899E0,2.5648408E0,1.0750585E0,1.4604031E0,1.1044376E0],"tree_param":{"num_deleted":"0","num_feature":"54","num_nodes":"11","size_leaf_vector":"0"}},{"base_weights":[-1.3354288E-1,-3.8945025E-1,2.4931484E-1,-4.5041665E-1,3.418559E-2,-1.7165773E-1,3.702138E-1,4.2511177E-1,7.485016E-2],"categories":[],"categories_nodes":[],"categories_segments":[],"categories_sizes":[],"default_left":[true,true,true,false,false,false,true,false,false],"id":28,"left_children":[1,3,5,-1,-1,-1,7,-1,-1],"loss_changes":[1.4383589E0,2.373991E-1,3.7371382E-1,0E0,0E0,0E0,5.0085902E-2,0E0,0E0],"parents":[2147483647,0,0,1,1,2,2,6,6],"right_children":[2,4,6,-1,-1,-1,8,-1,-1],"split_conditions":[6.771839E-1,1.2814063E0,4.497422E-1,-1.35125E-1,1.0255677E-2,-5.149732E-2,1.3640264E-2,1.2753354E-1,2.2455048E-2],"split_indices":[44,46,9,0,0,0,47,0,0],"split_type":[0,0,0,0,0,0,0,0,0],"sum_hessian":[1.2689694E1,7.595523E0,5.0941715E0,6.5846887E0,1.0108342E0,1.0429063E0,4.0512652E0,3.045861E0,1.005404E0],"tree_param":{"num_deleted":"0","num_feature":"54","num_nodes":"9","size_leaf_vector":"0"}},{"base_weights":[-1.5590733E-1,-4.1952395E-1,3.2743943E-1,-4.5947108E-1,-4.8944976E-2,-1.0427389E-2,4.264963E-1],"categories":[],"categories_nodes":[],"categories_segments":[],"categories_sizes":[],"default_left":[true,true,true,false,false,false,false],"id":29,"left_children":[1,3,5,-1,-1,-1,-1],"loss_changes":[1.8686984E0,1.14159346E-1,1.8373555E-1,0E0,0E0,0E0,0E0],"parents":[2147483647,0,0,1,1,2,2],"right_children":[2,4,6,-1,-1,-1,-1],"split_conditions":[1.1209567E0,8.9148325E-1,1.2028332E0,-1.3784133E-1,-1.4683493E-2,-3.1282168E-3,1.279489E-1],"split_indices":[0,43,20,0,0,0,0],"split_type":[0,0,0,0,0,0,0],"sum_hessian":[1.2587769E1,8.230764E0,4.357004E0,7.2133207E0,1.0174441E0,1.190644E0,3.16636E0],"tree_param":{"num_deleted":"0","num_feature":"54","num_nodes":"7","size_leaf_vector":"0"}},{"base_weights":[1.872759E-1,3.6661345E-1,-1.263676E-1,4.5680535E-1,-1.631068E-1,1.8066959E-1,-2.3824435E-1,-3.5794118E-1,-5.5942975E-2,1.7085059E-1,-2.4235235E-1],"categories":[],"categories_nodes":[],"categories_segments":[],"categories_sizes":[],"default_left":[true,true,true,false,false,false,true,false,true,false,false],"id":30,"left_children":[1,3,5,-1,-1,-1,7,-1,9,-1,-1],"loss_changes":[9.418593E-1,5.7069695E-1,2.675392E-1,0E0,0E0,0E0,9.3910635E-2,0E0,1.7900443E-1,0E0,0E0],"parents":[2147483647,0,0,1,1,2,2,6,6,8,8],"right_children":[2,4,6,-1,-1,-1,8,-1,10,-1,-1],"split_conditions":[2.2946085E-1,8.4563625E-1,-2.812999E-2,1.3704161E-1,-4.8932042E-2,5.420088E-2,-2.609639E-1,-1.0738236E-1,2.2632498E-1,5.1255178E-2,-7.270571E-2],"split_indices":[11,4,14,0,0,0,19,0,3,0,0],"split_type":[0,0,0,0,0,0,0,0,0,0,0],"sum_hessian":[1.4921106E1,9.385632E0,5.5354757E0,8.137723E0,1.2479078E0,1.314108E0,4.221368E0,1.9666386E0,2.254729E0,1.0548363E0,1.1998928E0],"tree_param":{"num_deleted":"0","num_feature":"54","num_nodes":"11","size_leaf_vector":"0"}},{"base_weights":[-1.2005054E-1,-4.0106642E-1,1.9858249E-1,3.7735E-1,-1.316655E-1],"categories":[],"categories_nodes":[],"categories_segments":[],"categories_sizes":[],"default_left":[true,false,true,false,false],"id":31,"left_children":[1,-1,3,-1,-1],"loss_changes":[1.114905E0,0E0,4.0905297E-1,0E0,0E0],"parents":[2147483647,0,0,2,2],"right_children":[2,-1,4,-1,-1],"split_conditions":[3.7048703E-1,-1.2031993E-1,9.620996E-5,1.1320501E-1,-3.949965E-2],"split_indices":[49,0,47,0,0],"split_type":[0,0,0,0,0],"sum_hessian":[1.0561865E1,5.474746E0,5.0871186E0,3.2079744E0,1.8791444E0],"tree_param":{"num_deleted":"0","num_feature":"54","num_nodes":"5","size_leaf_vector":"0"}},{"base_weights":[-1.3846041E-1,-4.4227886E-1,2.542991E-1,-1.9877386E-1,4.0670323E-1],"categories":[],"categories_nodes":[],"categories_segments":[],"categories_sizes":[],"default_left":[true,false,true,false,false],"id":32,"left_children":[1,-1,3,-1,-1],"loss_changes":[1.4858919E0,0E0,4.7131878E-1,0E0,0E0],"parents":[2147483647,0,0,2,2],"right_children":[2,-1,4,-1,-1],"split_conditions":[5.923195E-1,-1.3268366E-1,-2.6909935E-1,-5.963216E-2,1.22010976E-1],"split_indices":[10,0,2,0,0],"split_type":[0,0,0,0,0],"sum_hessian":[1.0509667E1,5.8546968E0,4.654971E0,1.095115E0,3.559856E0],"tree_param":{"num_deleted":"0","num_feature":"54","num_nodes":"5","size_leaf_vector":"0"}},{"base_weights":[1.684803E-1,3.171575E-1,-1.708701E-1,3.9444292E-1,-1.2548277E-1,1.5947565E-2,-2.858336E-1,4.542836E-1,-1.6396744E-3],"categories":[],"categories_nodes":[],"categories_segments":[],"categories_sizes":[],"default_left":[true,true,true,true,false,false,false,false,false],"id":33,"left_children":[1,3,5,7,-1,-1,-1,-1,-1],"loss_changes":[7.37144E-1,3.8346857E-1,1.0708347E-1,2.0345998E-1,0E0,0E0,0E0,0E0,0E0],"parents":[2147483647,0,0,1,1,2,2,3,3],"right_children":[2,4,6,8,-1,-1,-1,-1,-1],"split_conditions":[4.3305123E-1,1.5838873E0,2.1479422E-1,5.8918566E-1,-3.7644833E-2,4.7842697E-3,-8.575008E-2,1.3628508E-1,-4.9190235E-4],"split_indices":[35,20,42,26,0,0,0,0,0],"split_type":[0,0,0,0,0,0,0,0,0],"sum_hessian":[1.2536205E1,8.762535E0,3.77367E0,7.5527115E0,1.2098241E0,1.7656842E0,2.0079856E0,6.4337497E0,1.1189613E0],"tree_param":{"num_deleted":"0","num_feature":"54","num_nodes":"9","size_leaf_vector":"0"}},{"base_weights":[-1.09096825E-1,-3.070478E-1,2.9695508E-1,1.12584956E-1,-4.067764E-1,9.077858E-2,3.4232354E-1],"categories":[],"categories_nodes":[],"categories_segments":[],"categories_sizes":[],"default_left":[true,true,true,false,false,false,false],"id":34,"left_children":[1,3,5,-1,-1,-1,-1],"loss_changes":[8.8446987E-1,3.4403914E-1,3.9350092E-3,0E0,0E0,0E0,0E0],"parents":[2147483647,0,0,1,1,2,2],"right_children":[2,4,6,-1,-1,-1,-1],"split_conditions":[8.381295E-1,-1.1497526E0,-5.850043E-3,3.377549E-2,-1.22032925E-1,2.7233576E-2,1.0269707E-1],"split_indices":[45,19,32,0,0,0,0],"split_type":[0,0,0,0,0,0,0],"sum_hessian":[8.869452E0,6.1265635E0,2.7428887E0,1.1516781E0,4.9748855E0,1.0359486E0,1.7069399E0],"tree_param":{"num_deleted":"0","num_feature":"54","num_nodes":"7","size_leaf_vector":"0"}},{"base_weights":[-1.2308305E-1,-4.2507982E-1,2.4458893E-1,-1.4459E-1,3.9686456E-1],"categories":[],"categories_nodes":[],"categories_segments":[],"categories_sizes":[],"default_left":[true,false,true,false,false],"id":35,"left_children":[1,-1,3,-1,-1],"loss_changes":[1.1899937E0,0E0,3.5639596E-1,0E0,0E0],"parents":[2147483647,0,0,2,2],"right_children":[2,-1,4,-1,-1],"split_conditions":[5.923195E-1,-1.2752396E-1,-6.64457E-2,-4.3377005E-2,1.1905938E-1],"split_indices":[10,0,2,0,0],"split_type":[0,0,0,0,0],"sum_hessian":[8.780849E0,4.7352734E0,4.0455766E0,1.1519496E0,2.893627E0],"tree_param":{"num_deleted":"0","num_feature":"54","num_nodes":"5","size_leaf_vector":"0"}},{"base_weights":[1.4760478E-1,3.228475E-1,-1.2726355E-1,4.2023367E-1,-1.4620925E-1,1.2140001E-1,-2.3230198E-1,-3.2075766E-2,-3.1239557E-1],"categories":[],"categories_nodes":[],"categories_segments":[],"categories_sizes":[],"default_left":[true,true,true,false,false,false,true,false,false],"id":36,"left_children":[1,3,5,-1,-1,-1,7,-1,-1],"loss_changes":[6.0401046E-1,4.0035373E-1,1.6577658E-1,0E0,0E0,0E0,5.4868415E-2,0E0,0E0],"parents":[2147483647,0,0,1,1,2,2,6,6],"right_children":[2,4,6,-1,-1,-1,8,-1,-1],"split_conditions":[2.2946085E-1,8.4563625E-1,5.3955592E-2,1.2607011E-1,-4.386278E-2,3.6420006E-2,-4.332732E-1,-9.62273E-3,-9.371868E-2],"split_indices":[11,4,14,0,0,0,53,0,0],"split_type":[0,0,0,0,0,0,0,0,0],"sum_hessian":[1.0686511E1,6.4193144E0,4.2671967E0,5.4018607E0,1.0174539E0,1.2209659E0,3.0462308E0,1.2705237E0,1.7757071E0],"tree_param":{"num_deleted":"0","num_feature":"54","num_nodes":"9","size_leaf_vector":"0"}},{"base_weights":[-9.361983E-2,-3.3424175E-1,2.1251392E-1,-5.4084398E-2,-3.8850743E-1,-7.072161E-2,3.2320386E-1],"categories":[],"categories_nodes":[],"categories_segments":[],"categories_sizes":[],"default_left":[true,true,true,false,false,false,false],"id":37,"left_children":[1,3,5,-1,-1,-1,-1],"loss_changes":[7.003771E-1,5.762267E-2,1.5990338E-1,0E0,0E0,0E0,0E0],"parents":[2147483647,0,0,1,1,2,2],"right_children":[2,4,6,-1,-1,-1,-1],"split_conditions":[6.771839E-1,-4.2175606E-1,5.7361364E-1,-1.622532E-2,-1.1655223E-1,-2.1216484E-2,9.696116E-2],"split_indices":[44,47,5,0,0,0,0],"split_type":[0,0,0,0,0,0,0],"sum_hessian":[7.543644E0,4.1723504E0,3.3712938E0,1.0010241E0,3.171326E0,1.0487685E0,2.3225253E0],"tree_param":{"num_deleted":"0","num_feature":"54","num_nodes":"7","size_leaf_vector":"0"}},{"base_weights":[-1.0969804E-1,-3.6503965E-1,2.8918114E-1,-9.829641E-2,-4.0229458E-1,6.0120404E-2,3.4877115E-1],"categories":[],"categories_nodes":[],"categories_segments":[],"categories_sizes":[],"default_left":[true,true,true,false,false,false,false],"id":38,"left_children":[1,3,5,-1,-1,-1,-1],"loss_changes":[9.6451133E-1,1.5945852E-2,3.1576842E-2,0E0,0E0,0E0,0E0],"parents":[2147483647,0,0,1,1,2,2],"right_children":[2,4,6,-1,-1,-1,-1],"split_conditions":[1.1209567E0,-8.141258E-1,8.082594E-1,-2.9488925E-2,-1.2068838E-1,1.8036122E-2,1.0463135E-1],"split_indices":[0,14,29,0,0,0,0],"split_type":[0,0,0,0,0,0,0],"sum_hessian":[7.433432E0,4.583897E0,2.849535E0,1.0076512E0,3.5762458E0,1.0029917E0,1.8465433E0],"tree_param":{"num_deleted":"0","num_feature":"54","num_nodes":"7","size_leaf_vector":"0"}},{"base_weights":[1.2922476E-1,2.9971698E-1,-1.2241507E-1,4.1791373E-1,-1.1267215E-1,-2.7662507E-1,4.122204E-2,2.1712682E-1,-1.684241E-1],"categories":[],"categories_nodes":[],"categories_segments":[],"categories_sizes":[],"default_left":[true,true,true,false,false,false,true,false,false],"id":39,"left_children":[1,3,5,-1,-1,-1,7,-1,-1],"loss_changes":[4.7688076E-1,3.5934907E-1,1.3388985E-1,0E0,0E0,0E0,1.5551119E-1,0E0,0E0],"parents":[2147483647,0,0,1,1,2,2,6,6],"right_children":[2,4,6,-1,-1,-1,8,-1,-1],"split_conditions":[2.2946085E-1,1.3186313E0,-2.609639E-1,1.2537412E-1,-3.3801645E-2,-8.2987525E-2,3.3103555E-1,6.513805E-2,-5.0527234E-2],"split_indices":[11,20,19,0,0,0,3,0,0],"split_type":[0,0,0,0,0,0,0,0,0],"sum_hessian":[9.260229E0,5.406283E0,3.8539462E0,4.1915317E0,1.214751E0,1.6286467E0,2.2252994E0,1.1906203E0,1.034679E0],"tree_param":{"num_deleted":"0","num_feature":"54","num_nodes":"9","size_leaf_vector":"0"}},{"base_weights":[-8.64126E-2,-3.011592E-1,2.167909E-1,-7.080799E-3,-3.7663454E-1,3.318057E-1,-3.2099206E-2],"categories":[],"categories_nodes":[],"categories_segments":[],"categories_sizes":[],"default_left":[true,true,true,false,false,false,false],"id":40,"left_children":[1,3,5,-1,-1,-1,-1],"loss_changes":[5.543553E-1,1.0421708E-1,1.1644232E-1,0E0,0E0,0E0,0E0],"parents":[2147483647,0,0,1,1,2,2],"right_children":[2,4,6,-1,-1,-1,-1],"split_conditions":[7.6067406E-1,-5.966158E-1,-3.0729163E-1,-2.1242397E-3,-1.12990364E-1,9.954172E-2,-9.629762E-3],"split_indices":[5,22,19,0,0,0,0],"split_type":[0,0,0,0,0,0,0],"sum_hessian":[6.5111713E0,3.8155303E0,2.6956413E0,1.0026542E0,2.812876E0,1.6158143E0,1.079827E0],"tree_param":{"num_deleted":"0","num_feature":"54","num_nodes":"7","size_leaf_vector":"0"}},{"base_weights":[-9.084833E-2,-3.907452E-1,2.3546189E-1,-7.467495E-2,3.675661E-1],"categories":[],"categories_nodes":[],"categories_segments":[],"categories_sizes":[],"default_left":[true,false,true,false,false],"id":41,"left_children":[1,-1,3,-1,-1],"loss_changes":[8.210526E-1,0E0,1.9918926E-1,0E0,0E0],"parents":[2147483647,0,0,2,2],"right_children":[2,-1,4,-1,-1],"split_conditions":[5.923195E-1,-1.1722356E-1,8.4563625E-1,-2.2402486E-2,1.1026984E-1],"split_indices":[10,0,4,0,0],"split_type":[0,0,0,0,0],"sum_hessian":[6.4499426E0,3.258103E0,3.1918397E0,1.0833113E0,2.1085284E0],"tree_param":{"num_deleted":"0","num_feature":"54","num_nodes":"5","size_leaf_vector":"0"}},{"base_weights":[1.1450683E-1,3.272666E-1,-7.792593E-2,1.4787365E-1,-1.8103638E-1,-1.5086753E-2,-2.6514027E-1],"categories":[],"categories_nodes":[],"categories_segments":[],"categories_sizes":[],"default_left":[true,false,true,false,true,false,false],"id":42,"left_children":[1,-1,3,-1,5,-1,-1],"loss_changes":[3.936705E-1,0E0,1.5550901E-1,0E0,5.525589E-2,0E0,0E0],"parents":[2147483647,0,0,2,2,4,4],"right_children":[2,-1,4,-1,6,-1,-1],"split_conditions":[3.3293355E-2,9.817999E-2,-5.4791037E-2,4.4362098E-2,1.2554774E-1,-4.526026E-3,-7.9542086E-2],"split_indices":[35,0,14,0,25,0,0],"split_type":[0,0,0,0,0,0,0],"sum_hessian":[7.9924374E0,3.4629784E0,4.529459E0,1.2838506E0,3.2456083E0,1.4883171E0,1.7572911E0],"tree_param":{"num_deleted":"0","num_feature":"54","num_nodes":"7","size_leaf_vector":"0"}},{"base_weights":[-7.6637395E-2,-3.0177742E-1,1.9336441E-1,2.8832105E-1,-6.240171E-3],"categories":[],"categories_nodes":[],"categories_segments":[],"categories_sizes":[],"default_left":[true,false,true,false,false],"id":43,"left_children":[1,-1,3,-1,-1],"loss_changes":[4.6026868E-1,0E0,7.033266E-2,0E0,0E0],"parents":[2147483647,0,0,2,2],"right_children":[2,-1,4,-1,-1],"split_conditions":[6.771839E-1,-9.053323E-2,-5.948389E-1,8.6496316E-2,-1.8720514E-3],"split_indices":[44,0,22,0,0],"split_type":[0,0,0,0,0],"sum_hessian":[5.6117373E0,2.9959161E0,2.615821E0,1.4713862E0,1.1444347E0],"tree_param":{"num_deleted":"0","num_feature":"54","num_nodes":"5","size_leaf_vector":"0"}},{"base_weights":[-8.0205955E-2,-3.7098324E-1,2.2070298E-1,-6.525549E-2,3.4619528E-1],"categories":[],"categories_nodes":[],"categories_segments":[],"categories_sizes":[],"default_left":[true,false,true,false,false],"id":44,"left_children":[1,-1,3,-1,-1],"loss_changes":[6.5240985E-1,0E0,1.600849E-1,0E0,0E0],"parents":[2147483647,0,0,2,2],"right_children":[2,-1,4,-1,-1],"split_conditions":[5.923195E-1,-1.1129498E-1,8.4563625E-1,-1.9576648E-2,1.0385859E-1],"split_indices":[10,0,4,0,0],"split_type":[0,0,0,0,0],"sum_hessian":[5.520561E0,2.6891143E0,2.8314471E0,1.0099913E0,1.8214558E0],"tree_param":{"num_deleted":"0","num_feature":"54","num_nodes":"5","size_leaf_vector":"0"}},{"base_weights":[9.8825544E-2,2.3651786E-1,-1.6849819E-1,3.2852867E-1,-9.550387E-2,-1.1535204E-2,-2.538277E-1,3.691877E-1,8.862096E-2],"categories":[],"categories_nodes":[],"categories_segments":[],"categories_sizes":[],"default_left":[true,true,true,true,false,false,false,false,false],"id":45,"left_children":[1,3,5,7,-1,-1,-1,-1,-1],"loss_changes":[3.3898705E-1,2.0795152E-1,4.1897863E-2,1.3625503E-2,0E0,0E0,0E0,0E0,0E0],"parents":[2147483647,0,0,1,1,2,2,3,3],"right_children":[2,4,6,8,-1,-1,-1,-1,-1],"split_conditions":[6.295918E-1,7.474967E-1,-9.77023E-2,6.19977E-1,-2.8651161E-2,-3.4605614E-3,-7.614831E-2,1.10756315E-1,2.6586289E-2],"split_indices":[2,9,47,29,0,0,0,0,0],"split_type":[0,0,0,0,0,0,0,0,0],"sum_hessian":[7.126788E0,4.7799726E0,2.3468158E0,3.7510037E0,1.0289685E0,1.2262754E0,1.1205403E0,2.7466362E0,1.0043677E0],"tree_param":{"num_deleted":"0","num_feature":"54","num_nodes":"9","size_leaf_vector":"0"}},{"base_weights":[-6.755906E-2,-2.6868877E-1,1.9538207E-1,-5.111447E-2,-3.2790497E-1,2.7924356E-1,1.4814163E-2],"categories":[],"categories_nodes":[],"categories_segments":[],"categories_sizes":[],"default_left":[true,true,true,false,false,false,false],"id":46,"left_children":[1,3,5,-1,-1,-1,-1],"loss_changes":[3.6936116E-1,3.240186E-2,4.3952405E-2,0E0,0E0,0E0,0E0],"parents":[2147483647,0,0,1,1,2,2],"right_children":[2,4,6,-1,-1,-1,-1],"split_conditions":[7.6067406E-1,-4.4490218E-1,-4.6486127E-1,-1.5334342E-2,-9.83715E-2,8.377307E-2,4.444249E-3],"split_indices":[5,39,19,0,0,0,0],"split_type":[0,0,0,0,0,0,0],"sum_hessian":[4.991539E0,2.8158057E0,2.1757333E0,1.0010169E0,1.8147887E0,1.1125538E0,1.0631794E0],"tree_param":{"num_deleted":"0","num_feature":"54","num_nodes":"7","size_leaf_vector":"0"}},{"base_weights":[-6.798477E-2,-3.5278538E-1,2.1527319E-1,1.2602264E-2,3.1081164E-1],"categories":[],"categories_nodes":[],"categories_segments":[],"categories_sizes":[],"default_left":[true,false,true,false,false],"id":47,"left_children":[1,-1,3,-1,-1],"loss_changes":[5.486359E-1,0E0,6.49897E-2,0E0,0E0],"parents":[2147483647,0,0,2,2],"right_children":[2,-1,4,-1,-1],"split_conditions":[9.9593145E-1,-1.0583562E-1,9.5300543E-1,3.7806793E-3,9.3243495E-2],"split_indices":[20,0,43,0,0],"split_type":[0,0,0,0,0],"sum_hessian":[4.8594117E0,2.3007128E0,2.558699E0,1.1823735E0,1.3763254E0],"tree_param":{"num_deleted":"0","num_feature":"54","num_nodes":"5","size_leaf_vector":"0"}},{"base_weights":[8.5761465E-2,2.5027472E-1,-1.24638155E-1,3.63393E-1,-6.618654E-2,1.3048452E-2,-2.6049554E-1],"categories":[],"categories_nodes":[],"categories_segments":[],"categories_sizes":[],"default_left":[true,true,true,false,false,false,false],"id":48,"left_children":[1,3,5,-1,-1,-1,-1],"loss_changes":[2.8721032E-1,1.8454269E-1,7.659721E-2,0E0,0E0,0E0,0E0],"parents":[2147483647,0,0,1,1,2,2],"right_children":[2,4,6,-1,-1,-1,-1],"split_conditions":[2.2946085E-1,1.2024169E0,8.142998E-1,1.0901791E-1,-1.9855963E-2,3.914536E-3,-7.814866E-2],"split_indices":[11,20,45,0,0,0,0],"split_type":[0,0,0,0,0,0,0],"sum_hessian":[6.39643E0,3.4832928E0,2.9131372E0,2.4568105E0,1.0264825E0,1.8957834E0,1.0173538E0],"tree_param":{"num_deleted":"0","num_feature":"54","num_nodes":"7","size_leaf_vector":"0"}},{"base_weights":[-5.7603803E-2,-2.672942E-1,1.7924435E-1,2.4894707E-1,1.8067429E-2],"categories":[],"categories_nodes":[],"categories_segments":[],"categories_sizes":[],"default_left":[true,false,true,false,false],"id":49,"left_children":[1,-1,3,-1,-1],"loss_changes":[3.2106322E-1,0E0,3.1242415E-2,0E0,0E0],"parents":[2147483647,0,0,2,2],"right_children":[2,-1,4,-1,-1],"split_conditions":[6.771839E-1,-8.018826E-2,-7.561077E-1,7.468412E-2,5.420229E-3],"split_indices":[44,0,22,0,0],"split_type":[0,0,0,0,0],"sum_hessian":[4.499918E0,2.3186154E0,2.1813025E0,1.1426103E0,1.0386921E0],"tree_param":{"num_deleted":"0","num_feature":"54","num_nodes":"5","size_leaf_vector":"0"}},{"base_weights":[-6.0129706E-2,-2.976152E-1,2.5329974E-1],"categories":[],"categories_nodes":[],"categories_segments":[],"categories_sizes":[],"default_left":[true,false,false],"id":50,"left_children":[1,-1,-1],"loss_changes":[4.6843475E-1,0E0,0E0],"parents":[2147483647,0,0],"right_children":[2,-1,-1],"split_conditions":[1.1209567E0,-8.928456E-2,7.5989924E-2],"split_indices":[0,0,0],"split_type":[0,0,0],"sum_hessian":[4.2804356E0,2.4639535E0,1.8164818E0],"tree_param":{"num_deleted":"0","num_feature":"54","num_nodes":"3","size_leaf_vector":"0"}},{"base_weights":[7.121433E-2,2.0380728E-1,-1.5787451E-1,3.0302718E-1,-8.104075E-2,-2.1144602E-1,-2.5465237E-2],"categories":[],"categories_nodes":[],"categories_segments":[],"categories_sizes":[],"default_left":[true,true,true,false,false,false,false],"id":51,"left_children":[1,3,5,-1,-1,-1,-1],"loss_changes":[2.3758899E-1,1.5795206E-1,1.6197868E-2,0E0,0E0,0E0,0E0],"parents":[2147483647,0,0,1,1,2,2],"right_children":[2,4,6,-1,-1,-1,-1],"split_conditions":[6.295918E-1,2.7391568E-1,5.03241E-1,9.0908155E-2,-2.4312226E-2,-6.343381E-2,-7.6395716E-3],"split_indices":[2,21,48,0,0,0,0],"split_type":[0,0,0,0,0,0,0],"sum_hessian":[5.762442E0,3.7198246E0,2.0426178E0,2.7115138E0,1.0083107E0,1.0292718E0,1.013346E0],"tree_param":{"num_deleted":"0","num_feature":"54","num_nodes":"7","size_leaf_vector":"0"}},{"base_weights":[-4.8683245E-2,-2.400921E-1,1.8254934E-1],"categories":[],"categories_nodes":[],"categories_segments":[],"categories_sizes":[],"default_left":[true,false,false],"id":52,"left_children":[1,-1,-1],"loss_changes":[2.6733723E-1,0E0,0E0],"parents":[2147483647,0,0],"right_children":[2,-1,-1],"split_conditions":[7.6067406E-1,-7.202763E-2,5.4764803E-2],"split_indices":[5,0,0],"split_type":[0,0,0],"sum_hessian":[4.0499043E0,2.1947925E0,1.8551116E0],"tree_param":{"num_deleted":"0","num_feature":"54","num_nodes":"3","size_leaf_vector":"0"}},{"base_weights":[-4.8547614E-2,-3.215609E-1,2.066767E-1,2.6512243E-2,2.7979046E-1],"categories":[],"categories_nodes":[],"categories_segments":[],"categories_sizes":[],"default_left":[true,false,true,false,false],"id":53,"left_children":[1,-1,3,-1,-1],"loss_changes":[4.048076E-1,0E0,3.365913E-2,0E0,0E0],"parents":[2147483647,0,0,2,2],"right_children":[2,-1,4,-1,-1],"split_conditions":[5.923195E-1,-9.646827E-2,6.9720316E-1,7.953674E-3,8.393714E-2],"split_indices":[10,0,8,0,0],"split_type":[0,0,0,0,0],"sum_hessian":[3.8557725E0,1.7373818E0,2.1183908E0,1.0048614E0,1.1135294E0],"tree_param":{"num_deleted":"0","num_feature":"54","num_nodes":"5","size_leaf_vector":"0"}},{"base_weights":[5.882725E-2,2.1409146E-1,-1.2193679E-1,3.2245567E-1,-4.0642284E-2,-2.367259E-1,2.4811927E-2],"categories":[],"categories_nodes":[],"categories_segments":[],"categories_sizes":[],"default_left":[true,true,true,false,false,false,false],"id":54,"left_children":[1,3,5,-1,-1,-1,-1],"loss_changes":[2.0222418E-1,1.1630383E-1,6.544794E-2,0E0,0E0,0E0,0E0],"parents":[2147483647,0,0,1,1,2,2],"right_children":[2,4,6,-1,-1,-1,-1],"split_conditions":[2.2946085E-1,4.5772606E-1,-2.609639E-1,9.673671E-2,-1.2192686E-2,-7.101777E-2,7.4435784E-3],"split_indices":[11,4,19,0,0,0,0],"split_type":[0,0,0,0,0,0,0],"sum_hessian":[5.275116E0,2.738531E0,2.5365846E0,1.7347229E0,1.0038083E0,1.079245E0,1.4573396E0],"tree_param":{"num_deleted":"0","num_feature":"54","num_nodes":"7","size_leaf_vector":"0"}},{"base_weights":[-4.0373687E-2,-2.3443149E-1,1.6737852E-1],"categories":[],"categories_nodes":[],"categories_segments":[],"categories_sizes":[],"default_left":[true,false,false],"id":55,"left_children":[1,-1,-1],"loss_changes":[2.2973576E-1,0E0,0E0],"parents":[2147483647,0,0],"right_children":[2,-1,-1],"split_conditions":[6.771839E-1,-7.032945E-2,5.0213557E-2],"split_indices":[44,0,0],"split_type":[0,0,0],"sum_hessian":[3.7251034E0,1.859633E0,1.8654705E0],"tree_param":{"num_deleted":"0","num_feature":"54","num_nodes":"3","size_leaf_vector":"0"}},{"base_weights":[-3.9900556E-2,-3.0440718E-1,1.9795577E-1],"categories":[],"categories_nodes":[],"categories_segments":[],"categories_sizes":[],"default_left":[true,false,false],"id":56,"left_children":[1,-1,-1],"loss_changes":[3.415218E-1,0E0,0E0],"parents":[2147483647,0,0],"right_children":[2,-1,-1],"split_conditions":[5.923195E-1,-9.1322154E-2,5.9386734E-2],"split_indices":[10,0,0],"split_type":[0,0,0],"sum_hessian":[3.4705482E0,1.5107424E0,1.9598057E0],"tree_param":{"num_deleted":"0","num_feature":"54","num_nodes":"3","size_leaf_vector":"0"}},{"base_weights":[5.2350957E-2,2.020974E-1,-1.1740074E-1,3.0152562E-1,-1.999088E-2,2.6364254E-2,-2.0273514E-1],"categories":[],"categories_nodes":[],"categories_segments":[],"categories_sizes":[],"default_left":[true,true,true,false,false,false,false],"id":57,"left_children":[1,3,5,-1,-1,-1,-1],"loss_changes":[1.723007E-1,8.2714975E-2,4.671278E-2,0E0,0E0,0E0,0E0],"parents":[2147483647,0,0,1,1,2,2],"right_children":[2,4,6,-1,-1,-1,-1],"split_conditions":[2.2946085E-1,8.323628E-2,3.7341394E-2,9.045769E-2,-5.9972643E-3,7.9092765E-3,-6.0820546E-2],"split_indices":[11,4,25,0,0,0,0],"split_type":[0,0,0,0,0,0,0],"sum_hessian":[4.844846E0,2.472863E0,2.371983E0,1.4610652E0,1.0117978E0,1.1409104E0,1.2310727E0],"tree_param":{"num_deleted":"0","num_feature":"54","num_nodes":"7","size_leaf_vector":"0"}},{"base_weights":[-3.8767826E-2,1.9355796E-1,-1.9716647E-1,-2.6746216E-1,-2.4522252E-2],"categories":[],"categories_nodes":[],"categories_segments":[],"categories_sizes":[],"default_left":[true,false,true,false,false],"id":58,"left_children":[1,-1,3,-1,-1],"loss_changes":[2.0020734E-1,0E0,3.1228743E-2,0E0,0E0],"parents":[2147483647,0,0,2,2],"right_children":[2,-1,4,-1,-1],"split_conditions":[-4.672628E-1,5.8067393E-2,4.556443E-1,-8.0238655E-2,-7.356676E-3],"split_indices":[47,0,9,0,0],"split_type":[0,0,0,0,0],"sum_hessian":[3.4033637E0,1.2897296E0,2.113634E0,1.1117514E0,1.0018826E0],"tree_param":{"num_deleted":"0","num_feature":"54","num_nodes":"5","size_leaf_vector":"0"}},{"base_weights":[-3.2307416E-2,-2.5147036E-1,2.2467071E-1],"categories":[],"categories_nodes":[],"categories_segments":[],"categories_sizes":[],"default_left":[true,false,false],"id":59,"left_children":[1,-1,-1],"loss_changes":[2.9231682E-1,0E0,0E0],"parents":[2147483647,0,0],"right_children":[2,-1,-1],"split_conditions":[1.1209567E0,-7.544111E-2,6.7401215E-2],"split_indices":[0,0,0],"split_type":[0,0,0],"sum_hessian":[3.1871178E0,1.7316871E0,1.4554306E0],"tree_param":{"num_deleted":"0","num_feature":"54","num_nodes":"3","size_leaf_vector":"0"}},{"base_weights":[4.771083E-2,1.9577321E-1,-1.0778211E-1,2.727905E-1,1.6779961E-2,1.5345084E-2,-1.7618537E-1],"categories":[],"categories_nodes":[],"categories_segments":[],"categories_sizes":[],"default_left":[true,true,true,false,false,false,false],"id":60,"left_children":[1,3,5,-1,-1,-1,-1],"loss_changes":[1.4731734E-1,3.9030507E-2,3.065696E-2,0E0,0E0,0E0,0E0],"parents":[2147483647,0,0,1,1,2,2],"right_children":[2,4,6,-1,-1,-1,-1],"split_conditions":[1.1805217E-1,-3.265383E-2,2.1479422E-1,8.183715E-2,5.0339885E-3,4.603525E-3,-5.2855615E-2],"split_indices":[46,14,42,0,0,0,0],"split_type":[0,0,0,0,0,0,0],"sum_hessian":[4.482273E0,2.163301E0,2.318972E0,1.146121E0,1.01718E0,1.1052207E0,1.2137514E0],"tree_param":{"num_deleted":"0","num_feature":"54","num_nodes":"7","size_leaf_vector":"0"}},{"base_weights":[-3.7589315E-2,-1.8476583E-1,1.9169612E-1,-1.8973863E-2,-2.5716454E-1],"categories":[],"categories_nodes":[],"categories_segments":[],"categories_sizes":[],"default_left":[true,true,false,false,false],"id":61,"left_children":[1,3,-1,-1,-1],"loss_changes":[1.7500594E-1,3.1472504E-2,0E0,0E0,0E0],"parents":[2147483647,0,0,1,1],"right_children":[2,4,-1,-1,-1],"split_conditions":[8.381295E-1,-1.6708256E-1,5.7508837E-2,-5.692159E-3,-7.714936E-2],"split_indices":[45,43,0,0,0],"split_type":[0,0,0,0,0],"sum_hessian":[3.1364725E0,2.0285373E0,1.1079352E0,1.0001905E0,1.0283467E0],"tree_param":{"num_deleted":"0","num_feature":"54","num_nodes":"5","size_leaf_vector":"0"}},{"base_weights":[-2.7035499E-2,-2.3677047E-1,2.2065334E-1],"categories":[],"categories_nodes":[],"categories_segments":[],"categories_sizes":[],"default_left":[true,false,false],"id":62,"left_children":[1,-1,-1],"loss_changes":[2.5607106E-1,0E0,0E0],"parents":[2147483647,0,0],"right_children":[2,-1,-1],"split_conditions":[1.2560322E0,-7.1031146E-2,6.6196E-2],"split_indices":[20,0,0],"split_type":[0,0,0],"sum_hessian":[2.923595E0,1.6069566E0,1.3166382E0],"tree_param":{"num_deleted":"0","num_feature":"54","num_nodes":"3","size_leaf_vector":"0"}},{"base_weights":[4.2977575E-2,1.5968111E-1,-1.3761811E-1,2.7672514E-1,-4.361324E-2],"categories":[],"categories_nodes":[],"categories_segments":[],"categories_sizes":[],"default_left":[true,true,false,false,false],"id":63,"left_children":[1,3,-1,-1,-1],"loss_changes":[1.312398E-1,9.8016866E-2,0E0,0E0,0E0],"parents":[2147483647,0,0,1,1],"right_children":[2,4,-1,-1,-1],"split_conditions":[6.295918E-1,1.8116406E-1,-4.1285433E-2,8.301754E-2,-1.3083973E-2],"split_indices":[2,14,0,0,0],"split_type":[0,0,0,0,0],"sum_hessian":[4.1842847E0,2.6121104E0,1.5721744E0,1.4284784E0,1.183632E0],"tree_param":{"num_deleted":"0","num_feature":"54","num_nodes":"5","size_leaf_vector":"0"}},{"base_weights":[-3.7618894E-2,1.6890766E-1,-1.8503109E-1],"categories":[],"categories_nodes":[],"categories_segments":[],"categories_sizes":[],"default_left":[true,false,false],"id":64,"left_children":[1,-1,-1],"loss_changes":[1.5023719E-1,0E0,0E0],"parents":[2147483647,0,0],"right_children":[2,-1,-1],"split_conditions":[-7.034676E-1,5.06723E-2,-5.550933E-2],"split_indices":[22,0,0],"split_type":[0,0,0],"sum_hessian":[2.9082236E0,1.1505159E0,1.7577077E0],"tree_param":{"num_deleted":"0","num_feature":"54","num_nodes":"3","size_leaf_vector":"0"}},{"base_weights":[-2.0404266E-2,-2.6231748E-1,1.7875344E-1],"categories":[],"categories_nodes":[],"categories_segments":[],"categories_sizes":[],"default_left":[true,false,false],"id":65,"left_children":[1,-1,-1],"loss_changes":[2.258335E-1,0E0,0E0],"parents":[2147483647,0,0],"right_children":[2,-1,-1],"split_conditions":[5.923195E-1,-7.8695245E-2,5.3626034E-2],"split_indices":[10,0,0],"split_type":[0,0,0],"sum_hessian":[2.7141452E0,1.0823272E0,1.6318178E0],"tree_param":{"num_deleted":"0","num_feature":"54","num_nodes":"3","size_leaf_vector":"0"}},{"base_weights":[4.0101066E-2,1.7543125E-1,-1.071384E-1],"categories":[],"categories_nodes":[],"categories_segments":[],"categories_sizes":[],"default_left":[true,false,false],"id":66,"left_children":[1,-1,-1],"loss_changes":[1.1684573E-1,0E0,0E0],"parents":[2147483647,0,0],"right_children":[2,-1,-1],"split_conditions":[2.2946085E-1,5.2629378E-2,-3.214152E-2],"split_indices":[11,0,0],"split_type":[0,0,0],"sum_hessian":[3.9207354E0,1.9432207E0,1.9775146E0],"tree_param":{"num_deleted":"0","num_feature":"54","num_nodes":"3","size_leaf_vector":"0"}},{"base_weights":[-3.3225857E-2,-1.9902731E-1,1.4145604E-1],"categories":[],"categories_nodes":[],"categories_segments":[],"categories_sizes":[],"default_left":[true,false,false],"id":67,"left_children":[1,-1,-1],"loss_changes":[1.3586374E-1,0E0,0E0],"parents":[2147483647,0,0],"right_children":[2,-1,-1],"split_conditions":[6.771839E-1,-5.9708197E-2,4.2436812E-2],"split_indices":[44,0,0],"split_type":[0,0,0],"sum_hessian":[2.7189498E0,1.3234301E0,1.3955199E0],"tree_param":{"num_deleted":"0","num_feature":"54","num_nodes":"3","size_leaf_vector":"0"}},{"base_weights":[-2.09997E-2,-2.1472931E-1,1.9679435E-1],"categories":[],"categories_nodes":[],"categories_segments":[],"categories_sizes":[],"default_left":[true,false,false],"id":68,"left_children":[1,-1,-1],"loss_changes":[1.9046049E-1,0E0,0E0],"parents":[2147483647,0,0],"right_children":[2,-1,-1],"split_conditions":[1.1209567E0,-6.441879E-2,5.9038308E-2],"split_indices":[0,0,0],"split_type":[0,0,0],"sum_hessian":[2.5124886E0,1.3371522E0,1.1753364E0],"tree_param":{"num_deleted":"0","num_feature":"54","num_nodes":"3","size_leaf_vector":"0"}},{"base_weights":[3.397038E-2,1.7226465E-1,-1.04235254E-1],"categories":[],"categories_nodes":[],"categories_segments":[],"categories_sizes":[],"default_left":[true,false,false],"id":69,"left_children":[1,-1,-1],"loss_changes":[1.0811084E-1,0E0,0E0],"parents":[2147483647,0,0],"right_children":[2,-1,-1],"split_conditions":[1.1805217E-1,5.16794E-2,-3.127058E-2],"split_indices":[46,0,0],"split_type":[0,0,0],"sum_hessian":[3.716924E0,1.7346871E0,1.9822369E0],"tree_param":{"num_deleted":"0","num_feature":"54","num_nodes":"3","size_leaf_vector":"0"}},{"base_weights":[-3.3174768E-2,1.4244099E-1,-1.8336074E-1],"categories":[],"categories_nodes":[],"categories_segments":[],"categories_sizes":[],"default_left":[true,false,false],"id":70,"left_children":[1,-1,-1],"loss_changes":[1.2012881E-1,0E0,0E0],"parents":[2147483647,0,0],"right_children":[2,-1,-1],"split_conditions":[-2.7203006E-1,4.27323E-2,-5.5008225E-2],"split_indices":[19,0,0],"split_type":[0,0,0],"sum_hessian":[2.5643842E0,1.2058853E0,1.3584989E0],"tree_param":{"num_deleted":"0","num_feature":"54","num_nodes":"3","size_leaf_vector":"0"}},{"base_weights":[-1.2439186E-2,-2.0462735E-1,1.9913219E-1],"categories":[],"categories_nodes":[],"categories_segments":[],"categories_sizes":[],"default_left":[true,false,false],"id":71,"left_children":[1,-1,-1],"loss_changes":[1.7799813E-1,0E0,0E0],"parents":[2147483647,0,0],"right_children":[2,-1,-1],"split_conditions":[1.2560322E0,-6.1388206E-2,5.973966E-2],"split_indices":[20,0,0],"split_type":[0,0,0],"sum_hessian":[2.375433E0,1.2619334E0,1.1134996E0],"tree_param":{"num_deleted":"0","num_feature":"54","num_nodes":"3","size_leaf_vector":"0"}},{"base_weights":[2.9744973E-2,1.8809715E-1,-8.7177806E-2,1.11999E-2,-1.5624407E-1],"categories":[],"categories_nodes":[],"categories_segments":[],"categories_sizes":[],"default_left":[true,false,true,false,false],"id":72,"left_children":[1,-1,3,-1,-1],"loss_changes":[1.0054868E-1,0E0,2.415728E-2,0E0,0E0],"parents":[2147483647,0,0,2,2],"right_children":[2,-1,4,-1,-1],"split_conditions":[3.3293355E-2,5.6429148E-2,1.2614152E-1,3.3599702E-3,-4.6873223E-2],"split_indices":[35,0,25,0,0],"split_type":[0,0,0,0,0],"sum_hessian":[3.5450115E0,1.247183E0,2.2978287E0,1.2933807E0,1.0044479E0],"tree_param":{"num_deleted":"0","num_feature":"54","num_nodes":"5","size_leaf_vector":"0"}},{"base_weights":[-3.0377002E-2,-1.7958272E-1,1.3483639E-1],"categories":[],"categories_nodes":[],"categories_segments":[],"categories_sizes":[],"default_left":[true,false,false],"id":73,"left_children":[1,-1,-1],"loss_changes":[1.0887245E-1,0E0,0E0],"parents":[2147483647,0,0],"right_children":[2,-1,-1],"split_conditions":[7.6067406E-1,-5.3874817E-2,4.045092E-2],"split_indices":[5,0,0],"split_type":[0,0,0],"sum_hessian":[2.4342992E0,1.2334158E0,1.2008834E0],"tree_param":{"num_deleted":"0","num_feature":"54","num_nodes":"3","size_leaf_vector":"0"}},{"base_weights":[-9.536314E-3,-1.9156921E-1,1.8844748E-1],"categories":[],"categories_nodes":[],"categories_segments":[],"categories_sizes":[],"default_left":[true,false,false],"id":74,"left_children":[1,-1,-1],"loss_changes":[1.5275568E-1,0E0,0E0],"parents":[2147483647,0,0],"right_children":[2,-1,-1],"split_conditions":[1.2560322E0,-5.7470765E-2,5.6534246E-2],"split_indices":[20,0,0],"split_type":[0,0,0],"sum_hessian":[2.2368584E0,1.1822541E0,1.0546042E0],"tree_param":{"num_deleted":"0","num_feature":"54","num_nodes":"3","size_leaf_vector":"0"}},{"base_weights":[2.5734713E-2,1.5393826E-1,-9.78351E-2],"categories":[],"categories_nodes":[],"categories_segments":[],"categories_sizes":[],"default_left":[true,false,false],"id":75,"left_children":[1,-1,-1],"loss_changes":[8.432588E-2,0E0,0E0],"parents":[2147483647,0,0],"right_children":[2,-1,-1],"split_conditions":[1.1805217E-1,4.618148E-2,-2.9350532E-2],"split_indices":[46,0,0],"split_type":[0,0,0],"sum_hessian":[3.372234E0,1.5344669E0,1.8377672E0],"tree_param":{"num_deleted":"0","num_feature":"54","num_nodes":"3","size_leaf_vector":"0"}},{"base_weights":[-2.8748186E-2,-1.8003027E-1,1.2905498E-1],"categories":[],"categories_nodes":[],"categories_segments":[],"categories_sizes":[],"default_left":[true,false,false],"id":76,"left_children":[1,-1,-1],"loss_changes":[1.02259606E-1,0E0,0E0],"parents":[2147483647,0,0],"right_children":[2,-1,-1],"split_conditions":[6.771839E-1,-5.4009084E-2,3.8716495E-2],"split_indices":[44,0,0],"split_type":[0,0,0],"sum_hessian":[2.3102875E0,1.1076024E0,1.2026851E0],"tree_param":{"num_deleted":"0","num_feature":"54","num_nodes":"3","size_leaf_vector":"0"}},{"base_weights":[-5.577687E-3,-1.856046E-1,1.8460576E-1],"categories":[],"categories_nodes":[],"categories_segments":[],"categories_sizes":[],"default_left":[true,false,false],"id":77,"left_children":[1,-1,-1],"loss_changes":[1.4078164E-1,0E0,0E0],"parents":[2147483647,0,0],"right_children":[2,-1,-1],"split_conditions":[1.1209567E0,-5.568138E-2,5.538173E-2],"split_indices":[0,0,0],"split_type":[0,0,0],"sum_hessian":[2.1110907E0,1.096872E0,1.0142188E0],"tree_param":{"num_deleted":"0","num_feature":"54","num_nodes":"3","size_leaf_vector":"0"}},{"base_weights":[2.226232E-2,1.5778917E-1,-9.1674946E-2],"categories":[],"categories_nodes":[],"categories_segments":[],"categories_sizes":[],"default_left":[true,false,false],"id":78,"left_children":[1,-1,-1],"loss_changes":[7.965461E-2,0E0,0E0],"parents":[2147483647,0,0],"right_children":[2,-1,-1],"split_conditions":[1.0497127E-1,4.7336753E-2,-2.7502485E-2],"split_indices":[2,0,0],"split_type":[0,0,0],"sum_hessian":[3.2216785E0,1.2956465E0,1.926032E0],"tree_param":{"num_deleted":"0","num_feature":"54","num_nodes":"3","size_leaf_vector":"0"}},{"base_weights":[-2.7048776E-2,1.3150756E-1,-1.6459158E-1],"categories":[],"categories_nodes":[],"categories_segments":[],"categories_sizes":[],"default_left":[true,false,false],"id":79,"left_children":[1,-1,-1],"loss_changes":[9.151067E-2,0E0,0E0],"parents":[2147483647,0,0],"right_children":[2,-1,-1],"split_conditions":[-2.7203006E-1,3.945227E-2,-4.9377475E-2],"split_indices":[19,0,0],"split_type":[0,0,0],"sum_hessian":[2.2036283E0,1.0440031E0,1.1596252E0],"tree_param":{"num_deleted":"0","num_feature":"54","num_nodes":"3","size_leaf_vector":"0"}},{"base_weights":[-2.4391522E-3,-1.6333616E-1,1.5926984E-1],"categories":[],"categories_nodes":[],"categories_segments":[],"categories_sizes":[],"default_left":[true,false,false],"id":80,"left_children":[1,-1,-1],"loss_changes":[1.04212426E-1,0E0,0E0],"parents":[2147483647,0,0],"right_children":[2,-1,-1],"split_conditions":[8.2567E-1,-4.9000848E-2,4.7780953E-2],"split_indices":[4,0,0],"split_type":[0,0,0],"sum_hessian":[2.0054736E0,1.0002168E0,1.0052568E0],"tree_param":{"num_deleted":"0","num_feature":"54","num_nodes":"3","size_leaf_vector":"0"}},{"base_weights":[2.0097438E-2,1.5319076E-1,-8.846149E-2],"categories":[],"categories_nodes":[],"categories_segments":[],"categories_sizes":[],"default_left":[true,false,false],"id":81,"left_children":[1,-1,-1],"loss_changes":[7.2783254E-2,0E0,0E0],"parents":[2147483647,0,0],"right_children":[2,-1,-1],"split_conditions":[-1.8116143E-2,4.595723E-2,-2.6538448E-2],"split_indices":[14,0,0],"split_type":[0,0,0],"sum_hessian":[3.0995185E0,1.2077214E0,1.8917973E0],"tree_param":{"num_deleted":"0","num_feature":"54","num_nodes":"3","size_leaf_vector":"0"}},{"base_weights":[-2.437051E-2,-1.6792631E-1,1.2359076E-1],"categories":[],"categories_nodes":[],"categories_segments":[],"categories_sizes":[],"default_left":[true,false,false],"id":82,"left_children":[1,-1,-1],"loss_changes":[8.703119E-2,0E0,0E0],"parents":[2147483647,0,0],"right_children":[2,-1,-1],"split_conditions":[6.771839E-1,-5.0377894E-2,3.707723E-2],"split_indices":[44,0,0],"split_type":[0,0,0],"sum_hessian":[2.1202855E0,1.0076772E0,1.1126083E0],"tree_param":{"num_deleted":"0","num_feature":"54","num_nodes":"3","size_leaf_vector":"0"}},{"base_weights":[-2.1785335E-3],"categories":[],"categories_nodes":[],"categories_segments":[],"categories_sizes":[],"default_left":[false],"id":83,"left_children":[-1],"loss_changes":[0E0],"parents":[2147483647],"right_children":[-1],"split_conditions":[-6.5356004E-4],"split_indices":[0],"split_type":[0],"sum_hessian":[1.913502E0],"tree_param":{"num_deleted":"0","num_feature":"54","num_nodes":"1","size_leaf_vector":"0"}},{"base_weights":[1.8311618E-2,1.16804704E-1,-1.1351946E-1],"categories":[],"categories_nodes":[],"categories_segments":[],"categories_sizes":[],"default_left":[true,false,false],"id":84,"left_children":[1,-1,-1],"loss_changes":[6.541975E-2,0E0,0E0],"parents":[2147483647,0,0],"right_children":[2,-1,-1],"split_conditions":[6.295918E-1,3.5041414E-2,-3.405584E-2],"split_indices":[2,0,0],"split_type":[0,0,0],"sum_hessian":[3.017124E0,1.792157E0,1.224967E0],"tree_param":{"num_deleted":"0","num_feature":"54","num_nodes":"3","size_leaf_vector":"0"}},{"base_weights":[-2.4632156E-2,-1.5278043E-1,1.1441733E-1],"categories":[],"categories_nodes":[],"categories_segments":[],"categories_sizes":[],"default_left":[true,false,false],"id":85,"left_children":[1,-1,-1],"loss_changes":[7.166573E-2,0E0,0E0],"parents":[2147483647,0,0],"right_children":[2,-1,-1],"split_conditions":[7.6067406E-1,-4.583413E-2,3.43252E-2],"split_indices":[5,0,0],"split_type":[0,0,0],"sum_hessian":[2.0408635E0,1.0106751E0,1.0301886E0],"tree_param":{"num_deleted":"0","num_feature":"54","num_nodes":"3","size_leaf_vector":"0"}},{"base_weights":[4.6395056E-4],"categories":[],"categories_nodes":[],"categories_segments":[],"categories_sizes":[],"default_left":[false],"id":86,"left_children":[-1],"loss_changes":[0E0],"parents":[2147483647],"right_children":[-1],"split_conditions":[1.3918517E-4],"split_indices":[0],"split_type":[0],"sum_hessian":[1.8965718E0],"tree_param":{"num_deleted":"0","num_feature":"54","num_nodes":"1","size_leaf_vector":"0"}},{"base_weights":[1.4999896E-2,1.3672899E-1,-8.19963E-2],"categories":[],"categories_nodes":[],"categories_segments":[],"categories_sizes":[],"default_left":[true,false,false],"id":87,"left_children":[1,-1,-1],"loss_changes":[5.7848755E-2,0E0,0E0],"parents":[2147483647,0,0],"right_children":[2,-1,-1],"split_conditions":[-1.8116143E-2,4.10187E-2,-2.459889E-2],"split_indices":[14,0,0],"split_type":[0,0,0],"sum_hessian":[2.9498997E0,1.1265103E0,1.8233895E0],"tree_param":{"num_deleted":"0","num_feature":"54","num_nodes":"3","size_leaf_vector":"0"}},{"base_weights":[-2.122729E-2],"categories":[],"categories_nodes":[],"categories_segments":[],"categories_sizes":[],"default_left":[false],"id":88,"left_children":[-1],"loss_changes":[0E0],"parents":[2147483647],"right_children":[-1],"split_conditions":[-6.3681877E-3],"split_indices":[0],"split_type":[0],"sum_hessian":[1.985972E0],"tree_param":{"num_deleted":"0","num_feature":"54","num_nodes":"1","size_leaf_vector":"0"}},{"base_weights":[1.4424457E-3],"categories":[],"categories_nodes":[],"categories_segments":[],"categories_sizes":[],"default_left":[false],"id":89,"left_children":[-1],"loss_changes":[0E0],"parents":[2147483647],"right_children":[-1],"split_conditions":[4.327337E-4],"split_indices":[0],"split_type":[0],"sum_hessian":[1.8675035E0],"tree_param":{"num_deleted":"0","num_feature":"54","num_nodes":"1","size_leaf_vector":"0"}},{"base_weights":[1.384923E-2,1.2532324E-1,-8.7192215E-2],"categories":[],"categories_nodes":[],"categories_segments":[],"categories_sizes":[],"default_left":[true,false,false],"id":90,"left_children":[1,-1,-1],"loss_changes":[5.5042475E-2,0E0,0E0],"parents":[2147483647,0,0],"right_children":[2,-1,-1],"split_conditions":[1.1805217E-1,3.759697E-2,-2.6157666E-2],"split_indices":[46,0,0],"split_type":[0,0,0],"sum_hessian":[2.9166594E0,1.2724801E0,1.6441791E0],"tree_param":{"num_deleted":"0","num_feature":"54","num_nodes":"3","size_leaf_vector":"0"}},{"base_weights":[-2.052968E-2],"categories":[],"categories_nodes":[],"categories_segments":[],"categories_sizes":[],"default_left":[false],"id":91,"left_children":[-1],"loss_changes":[0E0],"parents":[2147483647],"right_children":[-1],"split_conditions":[-6.158904E-3],"split_indices":[0],"split_type":[0],"sum_hessian":[1.9601781E0],"tree_param":{"num_deleted":"0","num_feature":"54","num_nodes":"1","size_leaf_vector":"0"}},{"base_weights":[2.283292E-3],"categories":[],"categories_nodes":[],"categories_segments":[],"categories_sizes":[],"default_left":[false],"id":92,"left_children":[-1],"loss_changes":[0E0],"parents":[2147483647],"right_children":[-1],"split_conditions":[6.849876E-4],"split_indices":[0],"split_type":[0],"sum_hessian":[1.8594798E0],"tree_param":{"num_deleted":"0","num_feature":"54","num_nodes":"1","size_leaf_vector":"0"}},{"base_weights":[1.23099955E-2,1.03261314E-1,-1.0663491E-1],"categories":[],"categories_nodes":[],"categories_segments":[],"categories_sizes":[],"default_left":[true,false,false],"id":93,"left_children":[1,-1,-1],"loss_changes":[5.30493E-2,0E0,0E0],"parents":[2147483647,0,0],"right_children":[2,-1,-1],"split_conditions":[2.1498986E-1,3.0978395E-2,-3.1990472E-2],"split_indices":[42,0,0],"split_type":[0,0,0],"sum_hessian":[2.885864E0,1.7100947E0,1.1757693E0],"tree_param":{"num_deleted":"0","num_feature":"54","num_nodes":"3","size_leaf_vector":"0"}},{"base_weights":[-1.883125E-2],"categories":[],"categories_nodes":[],"categories_segments":[],"categories_sizes":[],"default_left":[false],"id":94,"left_children":[-1],"loss_changes":[0E0],"parents":[2147483647],"right_children":[-1],"split_conditions":[-5.649375E-3],"split_indices":[0],"split_type":[0],"sum_hessian":[1.9417003E0],"tree_param":{"num_deleted":"0","num_feature":"54","num_nodes":"1","size_leaf_vector":"0"}},{"base_weights":[2.6555792E-3],"categories":[],"categories_nodes":[],"categories_segments":[],"categories_sizes":[],"default_left":[false],"id":95,"left_children":[-1],"loss_changes":[0E0],"parents":[2147483647],"right_children":[-1],"split_conditions":[7.966738E-4],"split_indices":[0],"split_type":[0],"sum_hessian":[1.8470719E0],"tree_param":{"num_deleted":"0","num_feature":"54","num_nodes":"1","size_leaf_vector":"0"}},{"base_weights":[9.486033E-3,1.2763645E-1,-8.38971E-2],"categories":[],"categories_nodes":[],"categories_segments":[],"categories_sizes":[],"default_left":[true,false,false],"id":96,"left_children":[1,-1,-1],"loss_changes":[5.3249933E-2,0E0,0E0],"parents":[2147483647,0,0],"right_children":[2,-1,-1],"split_conditions":[1.0497127E-1,3.8290936E-2,-2.516913E-2],"split_indices":[2,0,0],"split_type":[0,0,0],"sum_hessian":[2.8557613E0,1.0987695E0,1.7569917E0],"tree_param":{"num_deleted":"0","num_feature":"54","num_nodes":"3","size_leaf_vector":"0"}},{"base_weights":[-1.7113263E-2],"categories":[],"categories_nodes":[],"categories_segments":[],"categories_sizes":[],"default_left":[false],"id":97,"left_children":[-1],"loss_changes":[0E0],"parents":[2147483647],"right_children":[-1],"split_conditions":[-5.133979E-3],"split_indices":[0],"split_type":[0],"sum_hessian":[1.9208941E0],"tree_param":{"num_deleted":"0","num_feature":"54","num_nodes":"1","size_leaf_vector":"0"}},{"base_weights":[4.7269347E-3],"categories":[],"categories_nodes":[],"categories_segments":[],"categories_sizes":[],"default_left":[false],"id":98,"left_children":[-1],"loss_changes":[0E0],"parents":[2147483647],"right_children":[-1],"split_conditions":[1.4180804E-3],"split_indices":[0],"split_type":[0],"sum_hessian":[1.8370261E0],"tree_param":{"num_deleted":"0","num_feature":"54","num_nodes":"1","size_leaf_vector":"0"}},{"base_weights":[9.148732E-3,1.1189641E-1,-8.999293E-2],"categories":[],"categories_nodes":[],"categories_segments":[],"categories_sizes":[],"default_left":[true,false,false],"id":99,"left_children":[1,-1,-1],"loss_changes":[4.9044594E-2,0E0,0E0],"parents":[2147483647,0,0],"right_children":[2,-1,-1],"split_conditions":[2.2946085E-1,3.3568926E-2,-2.6997881E-2],"split_indices":[11,0,0],"split_type":[0,0,0],"sum_hessian":[2.8260856E0,1.3246269E0,1.5014585E0],"tree_param":{"num_deleted":"0","num_feature":"54","num_nodes":"3","size_leaf_vector":"0"}},{"base_weights":[-1.5927637E-2],"categories":[],"categories_nodes":[],"categories_segments":[],"categories_sizes":[],"default_left":[false],"id":100,"left_children":[-1],"loss_changes":[0E0],"parents":[2147483647],"right_children":[-1],"split_conditions":[-4.778291E-3],"split_indices":[0],"split_type":[0],"sum_hessian":[1.907753E0],"tree_param":{"num_deleted":"0","num_feature":"54","num_nodes":"1","size_leaf_vector":"0"}},{"base_weights":[4.009419E-3],"categories":[],"categories_nodes":[],"categories_segments":[],"categories_sizes":[],"default_left":[false],"id":101,"left_children":[-1],"loss_changes":[0E0],"parents":[2147483647],"right_children":[-1],"split_conditions":[1.2028258E-3],"split_indices":[0],"split_type":[0],"sum_hessian":[1.820599E0],"tree_param":{"num_deleted":"0","num_feature":"54","num_nodes":"1","size_leaf_vector":"0"}},{"base_weights":[8.032327E-3,9.382054E-2,-1.01903364E-1],"categories":[],"categories_nodes":[],"categories_segments":[],"categories_sizes":[],"default_left":[true,false,false],"id":102,"left_children":[1,-1,-1],"loss_changes":[4.5376115E-2,0E0,0E0],"parents":[2147483647,0,0],"right_children":[2,-1,-1],"split_conditions":[2.1498986E-1,2.8146164E-2,-3.057101E-2],"split_indices":[42,0,0],"split_type":[0,0,0],"sum_hessian":[2.7975588E0,1.6536902E0,1.1438686E0],"tree_param":{"num_deleted":"0","num_feature":"54","num_nodes":"3","size_leaf_vector":"0"}},{"base_weights":[-1.6758893E-2],"categories":[],"categories_nodes":[],"categories_segments":[],"categories_sizes":[],"default_left":[false],"id":103,"left_children":[-1],"loss_changes":[0E0],"parents":[2147483647],"right_children":[-1],"split_conditions":[-5.027668E-3],"split_indices":[0],"split_type":[0],"sum_hessian":[1.8846018E0],"tree_param":{"num_deleted":"0","num_feature":"54","num_nodes":"1","size_leaf_vector":"0"}},{"base_weights":[6.336942E-3],"categories":[],"categories_nodes":[],"categories_segments":[],"categories_sizes":[],"default_left":[false],"id":104,"left_children":[-1],"loss_changes":[0E0],"parents":[2147483647],"right_children":[-1],"split_conditions":[1.9010826E-3],"split_indices":[0],"split_type":[0],"sum_hessian":[1.8151425E0],"tree_param":{"num_deleted":"0","num_feature":"54","num_nodes":"1","size_leaf_vector":"0"}},{"base_weights":[5.9516947E-3,1.15925245E-1,-7.889505E-2],"categories":[],"categories_nodes":[],"categories_segments":[],"categories_sizes":[],"default_left":[true,false,false],"id":105,"left_children":[1,-1,-1],"loss_changes":[4.434046E-2,0E0,0E0],"parents":[2147483647,0,0],"right_children":[2,-1,-1],"split_conditions":[1.0497127E-1,3.4777574E-2,-2.3668515E-2],"split_indices":[2,0,0],"split_type":[0,0,0],"sum_hessian":[2.7718272E0,1.0476425E0,1.7241848E0],"tree_param":{"num_deleted":"0","num_feature":"54","num_nodes":"3","size_leaf_vector":"0"}},{"base_weights":[-1.5335528E-2],"categories":[],"categories_nodes":[],"categories_segments":[],"categories_sizes":[],"default_left":[false],"id":106,"left_children":[-1],"loss_changes":[0E0],"parents":[2147483647],"right_children":[-1],"split_conditions":[-4.6006585E-3],"split_indices":[0],"split_type":[0],"sum_hessian":[1.8666769E0],"tree_param":{"num_deleted":"0","num_feature":"54","num_nodes":"1","size_leaf_vector":"0"}},{"base_weights":[7.6650316E-3],"categories":[],"categories_nodes":[],"categories_segments":[],"categories_sizes":[],"default_left":[false],"id":107,"left_children":[-1],"loss_changes":[0E0],"parents":[2147483647],"right_children":[-1],"split_conditions":[2.2995095E-3],"split_indices":[0],"split_type":[0],"sum_hessian":[1.8067768E0],"tree_param":{"num_deleted":"0","num_feature":"54","num_nodes":"1","size_leaf_vector":"0"}},{"base_weights":[6.14656E-3,1.1408982E-1,-7.602269E-2],"categories":[],"categories_nodes":[],"categories_segments":[],"categories_sizes":[],"default_left":[true,false,false],"id":108,"left_children":[1,-1,-1],"loss_changes":[4.1908927E-2,0E0,0E0],"parents":[2147483647,0,0],"right_children":[2,-1,-1],"split_conditions":[-1.8116143E-2,3.4226947E-2,-2.2806808E-2],"split_indices":[14,0,0],"split_type":[0,0,0],"sum_hessian":[2.74712E0,1.0194396E0,1.7276803E0],"tree_param":{"num_deleted":"0","num_feature":"54","num_nodes":"3","size_leaf_vector":"0"}},{"base_weights":[-1.4393606E-2],"categories":[],"categories_nodes":[],"categories_segments":[],"categories_sizes":[],"default_left":[false],"id":109,"left_children":[-1],"loss_changes":[0E0],"parents":[2147483647],"right_children":[-1],"split_conditions":[-4.3180822E-3],"split_indices":[0],"split_type":[0],"sum_hessian":[1.8559836E0],"tree_param":{"num_deleted":"0","num_feature":"54","num_nodes":"1","size_leaf_vector":"0"}},{"base_weights":[6.472169E-3],"categories":[],"categories_nodes":[],"categories_segments":[],"categories_sizes":[],"default_left":[false],"id":110,"left_children":[-1],"loss_changes":[0E0],"parents":[2147483647],"right_children":[-1],"split_conditions":[1.9416508E-3],"split_indices":[0],"split_type":[0],"sum_hessian":[1.7929877E0],"tree_param":{"num_deleted":"0","num_feature":"54","num_nodes":"1","size_leaf_vector":"0"}},{"base_weights":[6.3591553E-3,8.613881E-2,-9.496909E-2],"categories":[],"categories_nodes":[],"categories_segments":[],"categories_sizes":[],"default_left":[true,false,false],"id":111,"left_children":[1,-1,-1],"loss_changes":[3.827835E-2,0E0,0E0],"parents":[2147483647,0,0],"right_children":[2,-1,-1],"split_conditions":[2.1498986E-1,2.5841644E-2,-2.8490728E-2],"split_indices":[42,0,0],"split_type":[0,0,0],"sum_hessian":[2.7231662E0,1.6074566E0,1.1157095E0],"tree_param":{"num_deleted":"0","num_feature":"54","num_nodes":"3","size_leaf_vector":"0"}},{"base_weights":[-1.4556313E-2],"categories":[],"categories_nodes":[],"categories_segments":[],"categories_sizes":[],"default_left":[false],"id":112,"left_children":[-1],"loss_changes":[0E0],"parents":[2147483647],"right_children":[-1],"split_conditions":[-4.3668943E-3],"split_indices":[0],"split_type":[0],"sum_hessian":[1.8366925E0],"tree_param":{"num_deleted":"0","num_feature":"54","num_nodes":"1","size_leaf_vector":"0"}},{"base_weights":[6.317855E-3],"categories":[],"categories_nodes":[],"categories_segments":[],"categories_sizes":[],"default_left":[false],"id":113,"left_children":[-1],"loss_changes":[0E0],"parents":[2147483647],"right_children":[-1],"split_conditions":[1.8953566E-3],"split_indices":[0],"split_type":[0],"sum_hessian":[1.7882113E0],"tree_param":{"num_deleted":"0","num_feature":"54","num_nodes":"1","size_leaf_vector":"0"}},{"base_weights":[4.61134E-3,1.08934104E-1,-7.502512E-2],"categories":[],"categories_nodes":[],"categories_segments":[],"categories_sizes":[],"default_left":[true,false,false],"id":114,"left_children":[1,-1,-1],"loss_changes":[3.892294E-2,0E0,0E0],"parents":[2147483647,0,0],"right_children":[2,-1,-1],"split_conditions":[1.0497127E-1,3.2680232E-2,-2.2507537E-2],"split_indices":[2,0,0],"split_type":[0,0,0],"sum_hessian":[2.701316E0,1.0101455E0,1.6911706E0],"tree_param":{"num_deleted":"0","num_feature":"54","num_nodes":"3","size_leaf_vector":"0"}},{"base_weights":[-1.3393544E-2],"categories":[],"categories_nodes":[],"categories_segments":[],"categories_sizes":[],"default_left":[false],"id":115,"left_children":[-1],"loss_changes":[0E0],"parents":[2147483647],"right_children":[-1],"split_conditions":[-4.018063E-3],"split_indices":[0],"split_type":[0],"sum_hessian":[1.8213767E0],"tree_param":{"num_deleted":"0","num_feature":"54","num_nodes":"1","size_leaf_vector":"0"}},{"base_weights":[7.4499114E-3],"categories":[],"categories_nodes":[],"categories_segments":[],"categories_sizes":[],"default_left":[false],"id":116,"left_children":[-1],"loss_changes":[0E0],"parents":[2147483647],"right_children":[-1],"split_conditions":[2.2349735E-3],"split_indices":[0],"split_type":[0],"sum_hessian":[1.7813071E0],"tree_param":{"num_deleted":"0","num_feature":"54","num_nodes":"1","size_leaf_vector":"0"}},{"base_weights":[5.0003882E-3,9.928684E-2,-7.50631E-2],"categories":[],"categories_nodes":[],"categories_segments":[],"categories_sizes":[],"default_left":[true,false,false],"id":117,"left_children":[1,-1,-1],"loss_changes":[3.5230093E-2,0E0,0E0],"parents":[2147483647,0,0],"right_children":[2,-1,-1],"split_conditions":[1.1805217E-1,2.9786052E-2,-2.2518931E-2],"split_indices":[46,0,0],"split_type":[0,0,0],"sum_hessian":[2.6796503E0,1.1202688E0,1.5593815E0],"tree_param":{"num_deleted":"0","num_feature":"54","num_nodes":"3","size_leaf_vector":"0"}},{"base_weights":[-1.2664603E-2],"categories":[],"categories_nodes":[],"categories_segments":[],"categories_sizes":[],"default_left":[false],"id":118,"left_children":[-1],"loss_changes":[0E0],"parents":[2147483647],"right_children":[-1],"split_conditions":[-3.799381E-3],"split_indices":[0],"split_type":[0],"sum_hessian":[1.8122787E0],"tree_param":{"num_deleted":"0","num_feature":"54","num_nodes":"1","size_leaf_vector":"0"}},{"base_weights":[6.217563E-3],"categories":[],"categories_nodes":[],"categories_segments":[],"categories_sizes":[],"default_left":[false],"id":119,"left_children":[-1],"loss_changes":[0E0],"parents":[2147483647],"right_children":[-1],"split_conditions":[1.865269E-3],"split_indices":[0],"split_type":[0],"sum_hessian":[1.7690759E0],"tree_param":{"num_deleted":"0","num_feature":"54","num_nodes":"1","size_leaf_vector":"0"}},{"base_weights":[4.911666E-3,1.0159673E-1,-7.138478E-2],"categories":[],"categories_nodes":[],"categories_segments":[],"categories_sizes":[],"default_left":[true,false,false],"id":120,"left_children":[1,-1,-1],"loss_changes":[3.425194E-2,0E0,0E0],"parents":[2147483647,0,0],"right_children":[2,-1,-1],"split_conditions":[1.0784327E-1,3.047902E-2,-2.1415435E-2],"split_indices":[11,0,0],"split_type":[0,0,0],"sum_hessian":[2.660089E0,1.0270176E0,1.6330714E0],"tree_param":{"num_deleted":"0","num_feature":"54","num_nodes":"3","size_leaf_vector":"0"}},{"base_weights":[-1.1917592E-2],"categories":[],"categories_nodes":[],"categories_segments":[],"categories_sizes":[],"default_left":[false],"id":121,"left_children":[-1],"loss_changes":[0E0],"parents":[2147483647],"right_children":[-1],"split_conditions":[-3.5752777E-3],"split_indices":[0],"split_type":[0],"sum_hessian":[1.8010608E0],"tree_param":{"num_deleted":"0","num_feature":"54","num_nodes":"1","size_leaf_vector":"0"}},{"base_weights":[5.5790814E-3],"categories":[],"categories_nodes":[],"categories_segments":[],"categories_sizes":[],"default_left":[false],"id":122,"left_children":[-1],"loss_changes":[0E0],"parents":[2147483647],"right_children":[-1],"split_conditions":[1.6737245E-3],"split_indices":[0],"split_type":[0],"sum_hessian":[1.7610866E0],"tree_param":{"num_deleted":"0","num_feature":"54","num_nodes":"1","size_leaf_vector":"0"}},{"base_weights":[5.102724E-3,7.9541944E-2,-8.9011274E-2],"categories":[],"categories_nodes":[],"categories_segments":[],"categories_sizes":[],"default_left":[true,false,false],"id":123,"left_children":[1,-1,-1],"loss_changes":[3.2580346E-2,0E0,0E0],"parents":[2147483647,0,0],"right_children":[2,-1,-1],"split_conditions":[2.1498986E-1,2.3862584E-2,-2.6703384E-2],"split_indices":[42,0,0],"split_type":[0,0,0],"sum_hessian":[2.6398866E0,1.5604706E0,1.079416E0],"tree_param":{"num_deleted":"0","num_feature":"54","num_nodes":"3","size_leaf_vector":"0"}},{"base_weights":[-1.2964077E-2],"categories":[],"categories_nodes":[],"categories_segments":[],"categories_sizes":[],"default_left":[false],"id":124,"left_children":[-1],"loss_changes":[0E0],"parents":[2147483647],"right_children":[-1],"split_conditions":[-3.8892233E-3],"split_indices":[0],"split_type":[0],"sum_hessian":[1.7865708E0],"tree_param":{"num_deleted":"0","num_feature":"54","num_nodes":"1","size_leaf_vector":"0"}},{"base_weights":[6.3695908E-3],"categories":[],"categories_nodes":[],"categories_segments":[],"categories_sizes":[],"default_left":[false],"id":125,"left_children":[-1],"loss_changes":[0E0],"parents":[2147483647],"right_children":[-1],"split_conditions":[1.9108773E-3],"split_indices":[0],"split_type":[0],"sum_hessian":[1.7556038E0],"tree_param":{"num_deleted":"0","num_feature":"54","num_nodes":"1","size_leaf_vector":"0"}},{"base_weights":[3.5990514E-3,8.679024E-2,-7.9854764E-2],"categories":[],"categories_nodes":[],"categories_segments":[],"categories_sizes":[],"default_left":[true,false,false],"id":126,"left_children":[1,-1,-1],"loss_changes":[3.2071214E-2,0E0,0E0],"parents":[2147483647,0,0],"right_children":[2,-1,-1],"split_conditions":[1.2793839E-1,2.6037073E-2,-2.3956431E-2],"split_indices":[4,0,0],"split_type":[0,0,0],"sum_hessian":[2.6211965E0,1.2926425E0,1.3285539E0],"tree_param":{"num_deleted":"0","num_feature":"54","num_nodes":"3","size_leaf_vector":"0"}},{"base_weights":[-1.1924484E-2],"categories":[],"categories_nodes":[],"categories_segments":[],"categories_sizes":[],"default_left":[false],"id":127,"left_children":[-1],"loss_changes":[0E0],"parents":[2147483647],"right_children":[-1],"split_conditions":[-3.5773453E-3],"split_indices":[0],"split_type":[0],"sum_hessian":[1.7734735E0],"tree_param":{"num_deleted":"0","num_feature":"54","num_nodes":"1","size_leaf_vector":"0"}},{"base_weights":[7.2874427E-3],"categories":[],"categories_nodes":[],"categories_segments":[],"categories_sizes":[],"default_left":[false],"id":128,"left_children":[-1],"loss_changes":[0E0],"parents":[2147483647],"right_children":[-1],"split_conditions":[2.186233E-3],"split_indices":[0],"split_type":[0],"sum_hessian":[1.7497946E0],"tree_param":{"num_deleted":"0","num_feature":"54","num_nodes":"1","size_leaf_vector":"0"}},{"base_weights":[3.1007351E-3,9.2466466E-2,-7.387292E-2],"categories":[],"categories_nodes":[],"categories_segments":[],"categories_sizes":[],"default_left":[true,false,false],"id":129,"left_children":[1,-1,-1],"loss_changes":[3.1615E-2,0E0,0E0],"parents":[2147483647,0,0],"right_children":[2,-1,-1],"split_conditions":[7.7304326E-2,2.773994E-2,-2.2161875E-2],"split_indices":[14,0,0],"split_type":[0,0,0],"sum_hessian":[2.6029842E0,1.1113927E0,1.4915913E0],"tree_param":{"num_deleted":"0","num_feature":"54","num_nodes":"3","size_leaf_vector":"0"}},{"base_weights":[-8.128617E-3],"categories":[],"categories_nodes":[],"categories_segments":[],"categories_sizes":[],"default_left":[false],"id":130,"left_children":[-1],"loss_changes":[0E0],"parents":[2147483647],"right_children":[-1],"split_conditions":[-2.4385853E-3],"split_indices":[0],"split_type":[0],"sum_hessian":[1.7734224E0],"tree_param":{"num_deleted":"0","num_feature":"54","num_nodes":"1","size_leaf_vector":"0"}},{"base_weights":[4.1628107E-3],"categories":[],"categories_nodes":[],"categories_segments":[],"categories_sizes":[],"default_left":[false],"id":131,"left_children":[-1],"loss_changes":[0E0],"parents":[2147483647],"right_children":[-1],"split_conditions":[1.2488433E-3],"split_indices":[0],"split_type":[0],"sum_hessian":[1.7318352E0],"tree_param":{"num_deleted":"0","num_feature":"54","num_nodes":"1","size_leaf_vector":"0"}},{"base_weights":[3.214577E-3,7.686815E-2,-8.4640115E-2],"categories":[],"categories_nodes":[],"categories_segments":[],"categories_sizes":[],"default_left":[true,false,false],"id":132,"left_children":[1,-1,-1],"loss_changes":[2.9704494E-2,0E0,0E0],"parents":[2147483647,0,0],"right_children":[2,-1,-1],"split_conditions":[6.295918E-1,2.3060445E-2,-2.5392035E-2],"split_indices":[2,0,0],"split_type":[0,0,0],"sum_hessian":[2.585078E0,1.4742142E0,1.1108638E0],"tree_param":{"num_deleted":"0","num_feature":"54","num_nodes":"3","size_leaf_vector":"0"}},{"base_weights":[-8.506131E-3],"categories":[],"categories_nodes":[],"categories_segments":[],"categories_sizes":[],"default_left":[false],"id":133,"left_children":[-1],"loss_changes":[0E0],"parents":[2147483647],"right_children":[-1],"split_conditions":[-2.5518395E-3],"split_indices":[0],"split_type":[0],"sum_hessian":[1.757378E0],"tree_param":{"num_deleted":"0","num_feature":"54","num_nodes":"1","size_leaf_vector":"0"}},{"base_weights":[4.3700133E-3],"categories":[],"categories_nodes":[],"categories_segments":[],"categories_sizes":[],"default_left":[false],"id":134,"left_children":[-1],"loss_changes":[0E0],"parents":[2147483647],"right_children":[-1],"split_conditions":[1.311004E-3],"split_indices":[0],"split_type":[0],"sum_hessian":[1.7300458E0],"tree_param":{"num_deleted":"0","num_feature":"54","num_nodes":"1","size_leaf_vector":"0"}},{"base_weights":[2.1853752E-3,7.336802E-2,-8.668997E-2],"categories":[],"categories_nodes":[],"categories_segments":[],"categories_sizes":[],"default_left":[true,false,false],"id":135,"left_children":[1,-1,-1],"loss_changes":[2.893625E-2,0E0,0E0],"parents":[2147483647,0,0],"right_children":[2,-1,-1],"split_conditions":[2.1498986E-1,2.2010406E-2,-2.6006993E-2],"split_indices":[42,0,0],"split_type":[0,0,0],"sum_hessian":[2.5685449E0,1.5231208E0,1.0454241E0],"tree_param":{"num_deleted":"0","num_feature":"54","num_nodes":"3","size_leaf_vector":"0"}},{"base_weights":[-6.7233383E-3],"categories":[],"categories_nodes":[],"categories_segments":[],"categories_sizes":[],"default_left":[false],"id":136,"left_children":[-1],"loss_changes":[0E0],"parents":[2147483647],"right_children":[-1],"split_conditions":[-2.0170016E-3],"split_indices":[0],"split_type":[0],"sum_hessian":[1.7521561E0],"tree_param":{"num_deleted":"0","num_feature":"54","num_nodes":"1","size_leaf_vector":"0"}},{"base_weights":[3.936828E-3],"categories":[],"categories_nodes":[],"categories_segments":[],"categories_sizes":[],"default_left":[false],"id":137,"left_children":[-1],"loss_changes":[0E0],"parents":[2147483647],"right_children":[-1],"split_conditions":[1.1810485E-3],"split_indices":[0],"split_type":[0],"sum_hessian":[1.7190592E0],"tree_param":{"num_deleted":"0","num_feature":"54","num_nodes":"1","size_leaf_vector":"0"}},{"base_weights":[1.1446835E-3,8.7814644E-2,-6.8380535E-2],"categories":[],"categories_nodes":[],"categories_segments":[],"categories_sizes":[],"default_left":[true,false,false],"id":138,"left_children":[1,-1,-1],"loss_changes":[2.7408818E-2,0E0,0E0],"parents":[2147483647,0,0],"right_children":[2,-1,-1],"split_conditions":[1.2161756E-2,2.6344394E-2,-2.051416E-2],"split_indices":[37,0,0],"split_type":[0,0,0],"sum_hessian":[2.5520914E0,1.0188873E0,1.533204E0],"tree_param":{"num_deleted":"0","num_feature":"54","num_nodes":"3","size_leaf_vector":"0"}},{"base_weights":[-6.4204126E-3],"categories":[],"categories_nodes":[],"categories_segments":[],"categories_sizes":[],"default_left":[false],"id":139,"left_children":[-1],"loss_changes":[0E0],"parents":[2147483647],"right_children":[-1],"split_conditions":[-1.9261239E-3],"split_indices":[0],"split_type":[0],"sum_hessian":[1.7407453E0],"tree_param":{"num_deleted":"0","num_feature":"54","num_nodes":"1","size_leaf_vector":"0"}},{"base_weights":[4.9853725E-3],"categories":[],"categories_nodes":[],"categories_segments":[],"categories_sizes":[],"default_left":[false],"id":140,"left_children":[-1],"loss_changes":[0E0],"parents":[2147483647],"right_children":[-1],"split_conditions":[1.4956119E-3],"split_indices":[0],"split_type":[0],"sum_hessian":[1.7139151E0],"tree_param":{"num_deleted":"0","num_feature":"54","num_nodes":"1","size_leaf_vector":"0"}},{"base_weights":[1.7230351E-3,8.336607E-2,-7.256727E-2],"categories":[],"categories_nodes":[],"categories_segments":[],"categories_sizes":[],"default_left":[true,false,false],"id":141,"left_children":[1,-1,-1],"loss_changes":[2.7502028E-2,0E0,0E0],"parents":[2147483647,0,0],"right_children":[2,-1,-1],"split_conditions":[2.2946085E-1,2.5009824E-2,-2.1770181E-2],"split_indices":[11,0,0],"split_type":[0,0,0],"sum_hessian":[2.5369115E0,1.1504413E0,1.3864703E0],"tree_param":{"num_deleted":"0","num_feature":"54","num_nodes":"3","size_leaf_vector":"0"}},{"base_weights":[-4.3756375E-3],"categories":[],"categories_nodes":[],"categories_segments":[],"categories_sizes":[],"default_left":[false],"id":142,"left_children":[-1],"loss_changes":[0E0],"parents":[2147483647],"right_children":[-1],"split_conditions":[-1.3126913E-3],"split_indices":[0],"split_type":[0],"sum_hessian":[1.7389992E0],"tree_param":{"num_deleted":"0","num_feature":"54","num_nodes":"1","size_leaf_vector":"0"}},{"base_weights":[2.1810632E-3],"categories":[],"categories_nodes":[],"categories_segments":[],"categories_sizes":[],"default_left":[false],"id":143,"left_children":[-1],"loss_changes":[0E0],"parents":[2147483647],"right_children":[-1],"split_conditions":[6.5431895E-4],"split_indices":[0],"split_type":[0],"sum_hessian":[1.7008599E0],"tree_param":{"num_deleted":"0","num_feature":"54","num_nodes":"1","size_leaf_vector":"0"}},{"base_weights":[1.81532E-3,8.363406E-2,-6.773839E-2],"categories":[],"categories_nodes":[],"categories_segments":[],"categories_sizes":[],"default_left":[true,false,false],"id":144,"left_children":[1,-1,-1],"loss_changes":[2.5701126E-2,0E0,0E0],"parents":[2147483647,0,0],"right_children":[2,-1,-1],"split_conditions":[7.7304326E-2,2.509022E-2,-2.0321518E-2],"split_indices":[14,0,0],"split_type":[0,0,0],"sum_hessian":[2.5207522E0,1.0652356E0,1.4555167E0],"tree_param":{"num_deleted":"0","num_feature":"54","num_nodes":"3","size_leaf_vector":"0"}},{"base_weights":[-6.168482E-3],"categories":[],"categories_nodes":[],"categories_segments":[],"categories_sizes":[],"default_left":[false],"id":145,"left_children":[-1],"loss_changes":[0E0],"parents":[2147483647],"right_children":[-1],"split_conditions":[-1.8505446E-3],"split_indices":[0],"split_type":[0],"sum_hessian":[1.7247205E0],"tree_param":{"num_deleted":"0","num_feature":"54","num_nodes":"1","size_leaf_vector":"0"}},{"base_weights":[3.8587407E-3],"categories":[],"categories_nodes":[],"categories_segments":[],"categories_sizes":[],"default_left":[false],"id":146,"left_children":[-1],"loss_changes":[0E0],"parents":[2147483647],"right_children":[-1],"split_conditions":[1.1576222E-3],"split_indices":[0],"split_type":[0],"sum_hessian":[1.6992841E0],"tree_param":{"num_deleted":"0","num_feature":"54","num_nodes":"1","size_leaf_vector":"0"}},{"base_weights":[2.10965E-3,7.0430756E-2,-7.793819E-2],"categories":[],"categories_nodes":[],"categories_segments":[],"categories_sizes":[],"default_left":[true,false,false],"id":147,"left_children":[1,-1,-1],"loss_changes":[2.466392E-2,0E0,0E0],"parents":[2147483647,0,0],"right_children":[2,-1,-1],"split_conditions":[6.295918E-1,2.1129228E-2,-2.3381459E-2],"split_indices":[2,0,0],"split_type":[0,0,0],"sum_hessian":[2.506093E0,1.416903E0,1.08919E0],"tree_param":{"num_deleted":"0","num_feature":"54","num_nodes":"3","size_leaf_vector":"0"}},{"base_weights":[-6.7224633E-3],"categories":[],"categories_nodes":[],"categories_segments":[],"categories_sizes":[],"default_left":[false],"id":148,"left_children":[-1],"loss_changes":[0E0],"parents":[2147483647],"right_children":[-1],"split_conditions":[-2.016739E-3],"split_indices":[0],"split_type":[0],"sum_hessian":[1.7110466E0],"tree_param":{"num_deleted":"0","num_feature":"54","num_nodes":"1","size_leaf_vector":"0"}},{"base_weights":[4.0127635E-3],"categories":[],"categories_nodes":[],"categories_segments":[],"categories_sizes":[],"default_left":[false],"id":149,"left_children":[-1],"loss_changes":[0E0],"parents":[2147483647],"right_children":[-1],"split_conditions":[1.2038291E-3],"split_indices":[0],"split_type":[0],"sum_hessian":[1.698421E0],"tree_param":{"num_deleted":"0","num_feature":"54","num_nodes":"1","size_leaf_vector":"0"}},